{"learner":{"attributes":{"best_iteration":"419","best_score":"0.10754638697378753","scikit_learn":"{\"_estimator_type\": \"regressor\"}"},"feature_names":["month","week_no","region","grade","elevation","weather_cat","crop_cat","USD_to_LKR","lag_price_0","lag_price_1","lag_price_2"],"feature_types":["int","int","int","int","int","int","int","float","float","float","float"],"gradient_booster":{"model":{"cats":{"enc":[],"feature_segments":[],"sorted_idx":[]},"gbtree_model_param":{"num_parallel_tree":"1","num_trees":"470"},"iteration_indptr":[0,1,2,3,4,5,6,7,8,9,10,11,12,13,14,15,16,17,18,19,20,21,22,23,24,25,26,27,28,29,30,31,32,33,34,35,36,37,38,39,40,41,42,43,44,45,46,47,48,49,50,51,52,53,54,55,56,57,58,59,60,61,62,63,64,65,66,67,68,69,70,71,72,73,74,75,76,77,78,79,80,81,82,83,84,85,86,87,88,89,90,91,92,93,94,95,96,97,98,99,100,101,102,103,104,105,106,107,108,109,110,111,112,113,114,115,116,117,118,119,120,121,122,123,124,125,126,127,128,129,130,131,132,133,134,135,136,137,138,139,140,141,142,143,144,145,146,147,148,149,150,151,152,153,154,155,156,157,158,159,160,161,162,163,164,165,166,167,168,169,170,171,172,173,174,175,176,177,178,179,180,181,182,183,184,185,186,187,188,189,190,191,192,193,194,195,196,197,198,199,200,201,202,203,204,205,206,207,208,209,210,211,212,213,214,215,216,217,218,219,220,221,222,223,224,225,226,227,228,229,230,231,232,233,234,235,236,237,238,239,240,241,242,243,244,245,246,247,248,249,250,251,252,253,254,255,256,257,258,259,260,261,262,263,264,265,266,267,268,269,270,271,272,273,274,275,276,277,278,279,280,281,282,283,284,285,286,287,288,289,290,291,292,293,294,295,296,297,298,299,300,301,302,303,304,305,306,307,308,309,310,311,312,313,314,315,316,317,318,319,320,321,322,323,324,325,326,327,328,329,330,331,332,333,334,335,336,337,338,339,340,341,342,343,344,345,346,347,348,349,350,351,352,353,354,355,356,357,358,359,360,361,362,363,364,365,366,367,368,369,370,371,372,373,374,375,376,377,378,379,380,381,382,383,384,385,386,387,388,389,390,391,392,393,394,395,396,397,398,399,400,401,402,403,404,405,406,407,408,409,410,411,412,413,414,415,416,417,418,419,420,421,422,423,424,425,426,427,428,429,430,431,432,433,434,435,436,437,438,439,440,441,442,443,444,445,446,447,448,449,450,451,452,453,454,455,456,457,458,459,460,461,462,463,464,465,466,467,468,469,470],"tree_info":[0,0,0,0,0,0,0,0,0,0,0,0,0,0,0,0,0,0,0,0,0,0,0,0,0,0,0,0,0,0,0,0,0,0,0,0,0,0,0,0,0,0,0,0,0,0,0,0,0,0,0,0,0,0,0,0,0,0,0,0,0,0,0,0,0,0,0,0,0,0,0,0,0,0,0,0,0,0,0,0,0,0,0,0,0,0,0,0,0,0,0,0,0,0,0,0,0,0,0,0,0,0,0,0,0,0,0,0,0,0,0,0,0,0,0,0,0,0,0,0,0,0,0,0,0,0,0,0,0,0,0,0,0,0,0,0,0,0,0,0,0,0,0,0,0,0,0,0,0,0,0,0,0,0,0,0,0,0,0,0,0,0,0,0,0,0,0,0,0,0,0,0,0,0,0,0,0,0,0,0,0,0,0,0,0,0,0,0,0,0,0,0,0,0,0,0,0,0,0,0,0,0,0,0,0,0,0,0,0,0,0,0,0,0,0,0,0,0,0,0,0,0,0,0,0,0,0,0,0,0,0,0,0,0,0,0,0,0,0,0,0,0,0,0,0,0,0,0,0,0,0,0,0,0,0,0,0,0,0,0,0,0,0,0,0,0,0,0,0,0,0,0,0,0,0,0,0,0,0,0,0,0,0,0,0,0,0,0,0,0,0,0,0,0,0,0,0,0,0,0,0,0,0,0,0,0,0,0,0,0,0,0,0,0,0,0,0,0,0,0,0,0,0,0,0,0,0,0,0,0,0,0,0,0,0,0,0,0,0,0,0,0,0,0,0,0,0,0,0,0,0,0,0,0,0,0,0,0,0,0,0,0,0,0,0,0,0,0,0,0,0,0,0,0,0,0,0,0,0,0,0,0,0,0,0,0,0,0,0,0,0,0,0,0,0,0,0,0,0,0,0,0,0,0,0,0,0,0,0,0,0,0,0,0,0,0,0,0,0,0,0,0,0,0,0,0,0,0,0,0,0,0,0,0,0,0,0,0,0,0,0,0,0,0,0,0,0,0,0,0,0,0,0,0,0,0,0,0,0,0,0,0,0,0,0,0,0,0,0,0],"trees":[{"base_weights":[-1.9448486E-3,-4.392602E-1,2.290746E-1,-5.3563505E-1,-1.2618671E-1,1.4226876E-1,5.859464E-1,-6.4795244E-1,-4.0220383E-1,-1.630192E-1,2.7653965E-1,7.7254726E-3,2.313336E-1,4.6709386E-1,9.009176E-1,-7.6712465E-1,-5.913969E-1,-4.373945E-1,-2.23977E-1,-1.9541878E-1,-7.6611556E-2,3.47135E-1,2.6511615E-3,-4.0485427E-2,7.148837E-2,1.7830446E-1,2.946974E-1,2.1863203E-1,4.921064E-1,8.196351E-1,1.585539E-2,-7.687899E-1,-2.5561522E-3,-6.144886E-1,-5.195652E-1,-4.813557E-1,-4.0263817E-1,-1.7981783E-1,-3.612433E-1,-1.1629359E-2,-2.1454923E-1,-1.1715516E-1,-1.37348175E-2,1.6905887E-1,4.3662396E-1,-5.079358E-2,1.8970774E-3,-5.0676458E-2,2.5105453E-1,3.9979897E-2,1.0746247E-1,1.18944995E-1,2.057145E-1,2.6541674E-1,3.4531176E-1,5.0855884E-3,4.333998E-3,5.448328E-1,3.8083243E-1,1.2363281E-2,1.5750789E-3,-1.1580423E-2,-5.576493E-3,-8.18651E-3,-9.551026E-3,-7.828519E-3,-1.4438832E-3,-7.902062E-3,-6.8946993E-3,-6.4432803E-3,-5.3925295E-3,-4.353315E-3,-2.2457931E-3,-5.7106796E-3,-1.1788511E-3,-1.5681486E-3,9.835806E-4,-4.9831495E-3,-2.7404868E-3,3.2539025E-4,-2.2297534E-3,-1.3138545E-3,1.6897797E-4,5.7818886E-4,2.869603E-3,4.763332E-3,7.5776237E-3,2.1939754E-4,-1.1983037E-3,-4.6252944E-3,-6.559656E-4,4.4245846E-3,5.093422E-4,4.9215625E-4,2.720957E-3,7.184392E-4,2.0266739E-3,1.6363806E-3,4.591557E-3,2.6584556E-3,3.4515038E-3,-2.282989E-4,4.022564E-3,5.2097254E-3,-1.8274247E-3,-5.9992597E-3,1.1313511E-3,7.417926E-3,9.216035E-3,-3.1948362E-3,5.7900646E-3],"categories":[],"categories_nodes":[],"categories_segments":[],"categories_sizes":[],"default_left":[0,0,0,0,0,0,0,0,0,0,0,0,0,0,0,0,0,0,0,0,0,0,0,0,0,0,0,0,0,0,0,0,0,0,0,0,0,0,0,0,0,0,0,0,0,0,0,0,0,0,0,0,0,0,0,0,0,0,0,0,0,0,0,0,0,0,0,0,0,0,0,0,0,0,0,0,0,0,0,0,0,0,0,0,0,0,0,0,0,0,0,0,0,0,0,0,0,0,0,0,0,0,0,0,0,0,0,0,0,0,0],"id":0,"left_children":[1,3,5,7,9,11,13,15,17,19,21,23,25,27,29,31,33,35,37,39,41,43,45,47,49,51,53,55,57,59,-1,61,-1,63,65,67,69,71,73,75,77,79,81,83,85,87,-1,89,91,93,95,97,99,101,103,-1,105,107,109,-1,-1,-1,-1,-1,-1,-1,-1,-1,-1,-1,-1,-1,-1,-1,-1,-1,-1,-1,-1,-1,-1,-1,-1,-1,-1,-1,-1,-1,-1,-1,-1,-1,-1,-1,-1,-1,-1,-1,-1,-1,-1,-1,-1,-1,-1,-1,-1,-1,-1,-1,-1],"loss_changes":[5.7080975E2,5.885916E1,1.1444435E2,2.211444E1,6.883283E0,3.564786E1,2.6644775E1,4.9989014E0,4.198303E0,1.1692486E0,7.5315475E-1,3.6487377E0,5.962082E0,3.1675415E0,1.6333313E0,1.2435913E-1,5.9799194E-1,6.78627E-1,6.3212204E-1,1.0769091E0,2.9665297E-1,4.2019582E-1,6.598203E-2,2.021181E0,5.749166E-1,1.5651569E0,1.1147232E0,1.288682E0,2.596962E0,3.5237885E-1,0E0,4.2129517E-2,0E0,2.8388977E-1,8.919525E-2,1.5602112E-3,2.2288895E-1,2.522905E-1,1.1865783E-1,2.2204757E-1,9.811115E-1,3.1370932E-1,8.776696E-2,2.7469724E-2,2.8243065E-3,1.4491484E-2,0E0,1.1569605E0,2.0927668E-1,2.7185363E-1,3.8550568E-1,5.4011154E-1,4.2251968E-1,4.0599823E-1,3.1837845E-1,0E0,5.7623243E-1,8.2305145E-1,5.6438637E-1,0E0,0E0,0E0,0E0,0E0,0E0,0E0,0E0,0E0,0E0,0E0,0E0,0E0,0E0,0E0,0E0,0E0,0E0,0E0,0E0,0E0,0E0,0E0,0E0,0E0,0E0,0E0,0E0,0E0,0E0,0E0,0E0,0E0,0E0,0E0,0E0,0E0,0E0,0E0,0E0,0E0,0E0,0E0,0E0,0E0,0E0,0E0,0E0,0E0,0E0,0E0,0E0],"parents":[2147483647,0,0,1,1,2,2,3,3,4,4,5,5,6,6,7,7,8,8,9,9,10,10,11,11,12,12,13,13,14,14,15,15,16,16,17,17,18,18,19,19,20,20,21,21,22,22,23,23,24,24,25,25,26,26,27,27,28,28,29,29,31,31,33,33,34,34,35,35,36,36,37,37,38,38,39,39,40,40,41,41,42,42,43,43,44,44,45,45,47,47,48,48,49,49,50,50,51,51,52,52,53,53,54,54,56,56,57,57,58,58],"right_children":[2,4,6,8,10,12,14,16,18,20,22,24,26,28,30,32,34,36,38,40,42,44,46,48,50,52,54,56,58,60,-1,62,-1,64,66,68,70,72,74,76,78,80,82,84,86,88,-1,90,92,94,96,98,100,102,104,-1,106,108,110,-1,-1,-1,-1,-1,-1,-1,-1,-1,-1,-1,-1,-1,-1,-1,-1,-1,-1,-1,-1,-1,-1,-1,-1,-1,-1,-1,-1,-1,-1,-1,-1,-1,-1,-1,-1,-1,-1,-1,-1,-1,-1,-1,-1,-1,-1,-1,-1,-1,-1,-1,-1],"split_conditions":[1.2033334E3,2.02778E2,2.0833333E3,8.1E2,5.2E1,1.525E3,2.9333333E3,6.7E2,1.0266666E3,1.24E3,2.898077E2,1.4066666E3,1.7833334E3,1E0,3.6E3,5.1E1,8E2,8.7E2,2E0,2.903935E2,3.095676E2,8.15E2,1E0,3.654467E2,1.45E3,1.57E3,1.91E3,1.7E1,2E0,9E0,1.585539E-2,8.05E2,-2.5561522E-3,3E0,5.1E1,7.833333E2,9.4E2,1.005E3,2.026101E2,7.65E2,9.466667E2,1.7E1,1E0,6.75E2,1E0,1.1272727E3,1.8970774E-3,9.25E2,2E0,1.8625E3,1.49E3,3.656768E2,1.7E3,1.970089E2,2.06E3,5.0855884E-3,1.365E3,2.45E3,1.994368E2,1.2363281E-2,1.5750789E-3,-1.1580423E-2,-5.576493E-3,-8.18651E-3,-9.551026E-3,-7.828519E-3,-1.4438832E-3,-7.902062E-3,-6.8946993E-3,-6.4432803E-3,-5.3925295E-3,-4.353315E-3,-2.2457931E-3,-5.7106796E-3,-1.1788511E-3,-1.5681486E-3,9.835806E-4,-4.9831495E-3,-2.7404868E-3,3.2539025E-4,-2.2297534E-3,-1.3138545E-3,1.6897797E-4,5.7818886E-4,2.869603E-3,4.763332E-3,7.5776237E-3,2.1939754E-4,-1.1983037E-3,-4.6252944E-3,-6.559656E-4,4.4245846E-3,5.093422E-4,4.9215625E-4,2.720957E-3,7.184392E-4,2.0266739E-3,1.6363806E-3,4.591557E-3,2.6584556E-3,3.4515038E-3,-2.282989E-4,4.022564E-3,5.2097254E-3,-1.8274247E-3,-5.9992597E-3,1.1313511E-3,7.417926E-3,9.216035E-3,-3.1948362E-3,5.7900646E-3],"split_indices":[9,7,9,9,1,9,10,9,9,10,7,10,9,4,10,1,10,10,4,7,7,10,6,7,9,10,10,1,4,3,0,10,0,3,1,10,9,10,7,10,9,1,3,10,4,10,0,10,1,10,10,7,9,7,9,0,10,9,7,0,0,0,0,0,0,0,0,0,0,0,0,0,0,0,0,0,0,0,0,0,0,0,0,0,0,0,0,0,0,0,0,0,0,0,0,0,0,0,0,0,0,0,0,0,0,0,0,0,0,0,0],"split_type":[0,0,0,0,0,0,0,0,0,0,0,0,0,0,0,0,0,0,0,0,0,0,0,0,0,0,0,0,0,0,0,0,0,0,0,0,0,0,0,0,0,0,0,0,0,0,0,0,0,0,0,0,0,0,0,0,0,0,0,0,0,0,0,0,0,0,0,0,0,0,0,0,0,0,0,0,0,0,0,0,0,0,0,0,0,0,0,0,0,0,0,0,0,0,0,0,0,0,0,0,0,0,0,0,0,0,0,0,0,0,0],"sum_hessian":[5.648E3,1.952E3,3.696E3,1.492E3,4.6E2,2.974E3,7.22E2,8.08E2,6.84E2,4.22E2,3.8E1,1.185E3,1.789E3,5.26E2,1.96E2,2.56E2,5.52E2,5.7E2,1.14E2,3.06E2,1.16E2,3E1,8E0,6.75E2,5.1E2,9.76E2,8.13E2,4.9E1,4.77E2,1.33E2,6.3E1,2.55E2,1E0,4.12E2,1.4E2,2.46E2,3.24E2,8.8E1,2.6E1,2.9E1,2.77E2,7E1,4.6E1,1.1E1,1.9E1,6E0,2E0,6.53E2,2.2E1,2.73E2,2.37E2,3.1E2,6.66E2,5.19E2,2.94E2,3.1E1,1.8E1,3.21E2,1.56E2,1.32E2,1E0,2.52E2,3E0,1.07E2,3.05E2,1.39E2,1E0,7.2E1,1.74E2,1.94E2,1.3E2,1.7E1,7.1E1,2.4E1,2E0,1.3E1,1.6E1,5.7E1,2.2E2,1.3E1,5.7E1,1.1E1,3.5E1,2E0,9E0,9E0,1E1,2E0,4E0,1.6E1,6.37E2,1.8E1,4E0,2.61E2,1.2E1,7.6E1,1.61E2,2.96E2,1.4E1,3.11E2,3.55E2,5E0,5.14E2,2.93E2,1E0,2E0,1.6E1,1.91E2,1.3E2,1E0,1.55E2],"tree_param":{"num_deleted":"0","num_feature":"11","num_nodes":"111","size_leaf_vector":"1"}},{"base_weights":[-5.5012842E-5,-4.450643E-1,2.3881559E-1,-5.807169E-1,-2.3297061E-1,1.3481332E-1,5.4733E-1,-6.9352984E-1,-4.8502347E-1,-3.4414813E-1,-1.554381E-1,9.745516E-3,2.190939E-1,4.4435295E-1,8.785816E-1,-7.566722E-1,-6.230603E-1,-5.035179E-1,-2.3949967E-1,-3.8389555E-1,-2.125328E-1,-1.7085236E-1,-3.6667116E-2,-3.1307798E-2,7.279618E-2,1.6418985E-1,2.681993E-1,3.833028E-1,5.3005606E-1,7.8735405E-1,1.5884118E-2,-1.1400257E-2,-2.8001356E-3,-6.326848E-1,-3.415537E-1,-5.537575E-1,-4.5848274E-1,-3.4925747E-1,1.8445551E-3,-3.9919764E-1,-2.8791088E-1,1.669012E-1,-2.659926E-1,-2.2072664E-1,-1.2768264E-1,-1.7753522E-1,-1.8669654E-2,-6.697001E-2,-4.1787717E-3,4.1740622E-2,1.0884755E-1,1.3447587E-1,1.933348E-1,2.3852642E-1,2.9906198E-1,-5.0182985E-3,3.8581452E-1,4.8925078E-1,6.230589E-1,9.226724E-3,8.2016176E-1,-1.0179512E-2,-8.869624E-3,-7.102761E-3,-1.3274059E-3,-8.836339E-3,-7.7668778E-3,-7.325098E-3,-6.2900498E-3,-5.590145E-3,1.3735055E-4,-7.083392E-4,1.7885527E-3,-6.7328797E-3,-5.357407E-3,-1.7129312E-3,-4.7677425E-3,4.2930365E-4,2.6862859E-3,-5.875315E-3,-3.1773793E-3,-4.3606996E-3,-2.9671348E-3,-2.3703268E-3,-1.6635025E-3,-2.9414706E-3,-6.3540816E-4,-5.2531956E-5,-1.9017982E-3,-1.1195035E-3,-6.841616E-5,4.1972315E-3,-1.5267263E-4,3.5731075E-3,5.475338E-4,1.536561E-3,3.0350904E-3,1.8068742E-3,3.4478195E-3,2.2542395E-3,3.1011696E-3,8.028826E-3,3.5299554E-3,4.1271485E-3,4.9001193E-3,5.488674E-3,7.0220195E-3,5.061985E-3,7.501282E-3,9.533135E-3,4.405789E-3,2.9400908E-3,1.2355067E-2],"categories":[],"categories_nodes":[],"categories_segments":[],"categories_sizes":[],"default_left":[0,0,0,0,0,0,0,0,0,0,0,0,0,0,0,0,0,0,0,0,0,0,0,0,0,0,0,0,0,0,0,0,0,0,0,0,0,0,0,0,0,0,0,0,0,0,0,0,0,0,0,0,0,0,0,0,0,0,0,0,0,0,0,0,0,0,0,0,0,0,0,0,0,0,0,0,0,0,0,0,0,0,0,0,0,0,0,0,0,0,0,0,0,0,0,0,0,0,0,0,0,0,0,0,0,0,0,0,0,0,0,0,0],"id":1,"left_children":[1,3,5,7,9,11,13,15,17,19,21,23,25,27,29,31,33,35,37,39,41,43,45,47,49,51,53,55,57,59,-1,-1,-1,61,63,65,67,69,71,73,75,77,79,81,83,85,87,89,91,93,95,97,99,101,103,-1,105,107,109,-1,111,-1,-1,-1,-1,-1,-1,-1,-1,-1,-1,-1,-1,-1,-1,-1,-1,-1,-1,-1,-1,-1,-1,-1,-1,-1,-1,-1,-1,-1,-1,-1,-1,-1,-1,-1,-1,-1,-1,-1,-1,-1,-1,-1,-1,-1,-1,-1,-1,-1,-1,-1,-1],"loss_changes":[6.041009E2,5.697525E1,1.1858099E2,1.2726166E1,6.6355286E0,2.9164227E1,3.1401367E1,1.9891663E0,2.8672638E0,1.5819855E0,8.3405685E-1,2.8883886E0,4.41259E0,3.5273743E0,2.7860565E0,4.053192E-1,5.0730896E-1,1.1285248E0,1.2721362E0,2.4197388E-1,1.5860145E0,8.459587E-1,1.3358998E-1,6.5373737E-1,4.8807836E-1,6.5208817E-1,7.2631073E-1,8.8635635E-1,8.108978E-1,3.431244E-1,0E0,0E0,0E0,8.734131E-2,3.2543886E-1,5.5862427E-2,1.7858124E-1,2.8040314E-1,9.77924E-2,2.7182388E-1,1.5613246E-1,1.1723399E-2,3.7320423E-1,2.4242973E-1,9.449172E-2,6.7485124E-3,7.990939E-2,1.3931584E-1,6.588095E-1,2.3624602E-1,1.00930214E-1,4.950719E-1,1.9581795E-1,2.9985237E-1,1.8949509E-1,0E0,5.1519394E-1,1.7494965E-1,1.6690063E-1,0E0,1.0797882E-1,0E0,0E0,0E0,0E0,0E0,0E0,0E0,0E0,0E0,0E0,0E0,0E0,0E0,0E0,0E0,0E0,0E0,0E0,0E0,0E0,0E0,0E0,0E0,0E0,0E0,0E0,0E0,0E0,0E0,0E0,0E0,0E0,0E0,0E0,0E0,0E0,0E0,0E0,0E0,0E0,0E0,0E0,0E0,0E0,0E0,0E0,0E0,0E0,0E0,0E0,0E0,0E0],"parents":[2147483647,0,0,1,1,2,2,3,3,4,4,5,5,6,6,7,7,8,8,9,9,10,10,11,11,12,12,13,13,14,14,15,15,16,16,17,17,18,18,19,19,20,20,21,21,22,22,23,23,24,24,25,25,26,26,27,27,28,28,29,29,33,33,34,34,35,35,36,36,37,37,38,38,39,39,40,40,41,41,42,42,43,43,44,44,45,45,46,46,47,47,48,48,49,49,50,50,51,51,52,52,53,53,54,54,56,56,57,57,58,58,60,60],"right_children":[2,4,6,8,10,12,14,16,18,20,22,24,26,28,30,32,34,36,38,40,42,44,46,48,50,52,54,56,58,60,-1,-1,-1,62,64,66,68,70,72,74,76,78,80,82,84,86,88,90,92,94,96,98,100,102,104,-1,106,108,110,-1,112,-1,-1,-1,-1,-1,-1,-1,-1,-1,-1,-1,-1,-1,-1,-1,-1,-1,-1,-1,-1,-1,-1,-1,-1,-1,-1,-1,-1,-1,-1,-1,-1,-1,-1,-1,-1,-1,-1,-1,-1,-1,-1,-1,-1,-1,-1,-1,-1,-1,-1,-1,-1],"split_conditions":[1.224E3,9E2,2E3,7.45E2,1.02E3,1.52E3,2.7666667E3,6.75E2,2.02778E2,2.02778E2,1.4066666E3,1.42E3,1.715E3,2.2083333E3,3.6E3,2.02778E2,2.02778E2,8.1E2,1.2E1,1.04E3,2.898077E2,1.14E3,2E0,1.305E3,1.49E3,1.65E3,1.8125E3,6.9E2,2.55E3,2.8E3,1.5884118E-2,-1.1400257E-2,-2.8001356E-3,7.15E2,1.1E1,7.65E2,1E0,1.4066666E3,8.55E2,8.9E2,8.25E2,1E0,9.466667E2,1.005E3,6E0,1.505E3,1.7545454E3,1.2E1,8.55E2,8.95E2,1.91E3,1.2E1,1.61E3,9.85E2,1.875E3,-5.0182985E-3,2.3045454E3,2.0166666E3,2E0,9.226724E-3,1.91E3,-1.0179512E-2,-8.869624E-3,-7.102761E-3,-1.3274059E-3,-8.836339E-3,-7.7668778E-3,-7.325098E-3,-6.2900498E-3,-5.590145E-3,1.3735055E-4,-7.083392E-4,1.7885527E-3,-6.7328797E-3,-5.357407E-3,-1.7129312E-3,-4.7677425E-3,4.2930365E-4,2.6862859E-3,-5.875315E-3,-3.1773793E-3,-4.3606996E-3,-2.9671348E-3,-2.3703268E-3,-1.6635025E-3,-2.9414706E-3,-6.3540816E-4,-5.2531956E-5,-1.9017982E-3,-1.1195035E-3,-6.841616E-5,4.1972315E-3,-1.5267263E-4,3.5731075E-3,5.475338E-4,1.536561E-3,3.0350904E-3,1.8068742E-3,3.4478195E-3,2.2542395E-3,3.1011696E-3,8.028826E-3,3.5299554E-3,4.1271485E-3,4.9001193E-3,5.488674E-3,7.0220195E-3,5.061985E-3,7.501282E-3,9.533135E-3,4.405789E-3,2.9400908E-3,1.2355067E-2],"split_indices":[8,8,8,8,10,8,10,9,7,7,10,8,8,10,8,7,7,9,0,8,7,8,0,8,10,9,10,9,8,8,0,0,0,10,0,10,4,10,10,10,10,3,8,9,0,10,10,0,9,10,9,0,10,9,8,0,8,9,4,0,9,0,0,0,0,0,0,0,0,0,0,0,0,0,0,0,0,0,0,0,0,0,0,0,0,0,0,0,0,0,0,0,0,0,0,0,0,0,0,0,0,0,0,0,0,0,0,0,0,0,0,0,0],"split_type":[0,0,0,0,0,0,0,0,0,0,0,0,0,0,0,0,0,0,0,0,0,0,0,0,0,0,0,0,0,0,0,0,0,0,0,0,0,0,0,0,0,0,0,0,0,0,0,0,0,0,0,0,0,0,0,0,0,0,0,0,0,0,0,0,0,0,0,0,0,0,0,0,0,0,0,0,0,0,0,0,0,0,0,0,0,0,0,0,0,0,0,0,0,0,0,0,0,0,0,0,0,0,0,0,0,0,0,0,0,0,0,0,0],"sum_hessian":[5.681E3,1.984E3,3.697E3,1.209E3,7.75E2,2.766E3,9.31E2,5.52E2,6.57E2,3.17E2,4.58E2,1.114E3,1.652E3,7.12E2,2.19E2,2.86E2,2.66E2,6.1E2,4.7E1,2.42E2,7.5E1,4.05E2,5.3E1,6.75E2,4.39E2,7.82E2,8.7E2,4.19E2,2.93E2,1.49E2,7E1,2.84E2,2E0,2.56E2,1E1,2.83E2,3.27E2,3.2E1,1.5E1,2.06E2,3.6E1,9E0,6.6E1,1.86E2,2.19E2,5E0,4.8E1,2.91E2,3.84E2,2.37E2,2.02E2,3.9E2,3.92E2,4.48E2,4.22E2,1E0,4.18E2,2.08E2,8.5E1,2.7E1,1.22E2,1.14E2,1.42E2,6E0,4E0,1.35E2,1.48E2,1.79E2,1.48E2,3E1,2E0,1.1E1,4E0,9E1,1.16E2,6E0,3E1,1E0,8E0,1.8E1,4.8E1,4.3E1,1.43E2,7.5E1,1.44E2,4E0,1E0,4.3E1,5E0,2.59E2,3.2E1,7E0,3.77E2,5E0,2.32E2,1.91E2,1.1E1,3.42E2,4.8E1,9.6E1,2.96E2,3E0,4.45E2,2.32E2,1.9E2,3.41E2,7.7E1,1.6E1,1.92E2,8.1E1,4E0,1E0,1.21E2],"tree_param":{"num_deleted":"0","num_feature":"11","num_nodes":"113","size_leaf_vector":"1"}},{"base_weights":[3.6974887E-3,-4.289936E-1,2.3112924E-1,-5.607274E-1,-2.1543065E-1,1.29129E-1,5.3731996E-1,-6.5785027E-1,-4.517987E-1,-3.1872E-1,-1.4532167E-1,8.3728675E-3,2.1158978E-1,4.4902205E-1,9.0322393E-1,-7.4567556E-1,-5.997161E-1,-4.6374258E-1,-6.2718987E-3,-1.7968015E-1,-3.7972972E-1,-1.5904926E-1,5.850269E-2,-3.2349672E-2,6.742006E-2,1.5950081E-1,2.600973E-1,5.279634E-1,3.5232747E-1,8.2607013E-1,1.5953312E-2,-1.1214512E-2,-1.9348526E-3,-6.06331E-1,-7.641443E-2,-7.742789E-3,-4.2818588E-1,-1.08766794E-1,5.020458E-2,-2.8509632E-1,-1.415158E-1,-3.82711E-1,-4.7445774E-2,-1.7789225E-1,-6.854157E-2,1.5361106E-1,-7.037001E-2,-3.946195E-2,1.214056E-1,3.1152768E-2,1.00849316E-1,1.5253985E-1,2.70889E-1,2.2832887E-1,2.9417014E-1,4.5239213E-1,6.0206515E-1,-2.0212507E-1,3.5950828E-1,1.2605561E-2,4.6290603E-1,-1.0090209E-2,-8.746839E-3,-1.3114756E-3,-1.5995979E-4,-6.588586E-3,-4.173425E-3,-5.0226215E-4,-2.0705562E-3,-6.425446E-4,1.3567418E-3,-4.4674515E-3,-1.4502477E-3,-2.3353149E-3,1.5444618E-4,-6.6598724E-3,-5.4590437E-3,-1.0411441E-3,-2.6385784E-5,-3.408351E-3,-2.1329734E-3,5.8069016E-4,-1.6765345E-3,4.26085E-4,2.3949158E-3,-1.7403618E-3,3.8822077E-4,-1.0922955E-3,-6.258795E-5,4.0808734E-3,2.980019E-4,-1.3551392E-3,6.045719E-4,1.4258298E-3,2.927325E-3,9.4303663E-4,2.4837593E-3,6.488757E-3,3.2093634E-3,1.7656352E-3,3.5352996E-3,3.5143578E-3,4.550175E-3,5.697228E-3,7.178723E-3,8.536695E-3,1.0469845E-2,1.1390114E-3,-6.1921384E-3,5.7972507E-3,4.020295E-3,8.890224E-3,1.3846707E-3],"categories":[],"categories_nodes":[],"categories_segments":[],"categories_sizes":[],"default_left":[0,0,0,0,0,0,0,0,0,0,0,0,0,0,0,0,0,0,0,0,0,0,0,0,0,0,0,0,0,0,0,0,0,0,0,0,0,0,0,0,0,0,0,0,0,0,0,0,0,0,0,0,0,0,0,0,0,0,0,0,0,0,0,0,0,0,0,0,0,0,0,0,0,0,0,0,0,0,0,0,0,0,0,0,0,0,0,0,0,0,0,0,0,0,0,0,0,0,0,0,0,0,0,0,0,0,0,0,0,0,0,0,0],"id":2,"left_children":[1,3,5,7,9,11,13,15,17,19,21,23,25,27,29,31,33,35,37,39,41,43,45,47,49,51,53,55,57,59,-1,-1,-1,61,63,-1,65,67,69,71,73,75,77,79,81,83,85,87,89,91,93,95,97,99,101,103,105,107,109,-1,111,-1,-1,-1,-1,-1,-1,-1,-1,-1,-1,-1,-1,-1,-1,-1,-1,-1,-1,-1,-1,-1,-1,-1,-1,-1,-1,-1,-1,-1,-1,-1,-1,-1,-1,-1,-1,-1,-1,-1,-1,-1,-1,-1,-1,-1,-1,-1,-1,-1,-1,-1,-1],"loss_changes":[5.5954694E2,5.4992645E1,1.16330505E2,1.2514557E1,5.377575E0,2.7849758E1,2.9673706E1,2.8101807E0,3.051529E0,2.4935722E0,1.2628174E0,2.7337513E0,4.1579056E0,5.5541534E0,1.3480377E0,2.0552063E-1,1.3002014E0,8.213501E-1,9.807741E-2,3.378291E-1,1.8888092E-1,7.0408916E-1,3.6625898E-1,7.407504E-1,5.594065E-1,5.820732E-1,8.626518E-1,2.0348053E0,1.430336E0,2.653656E-1,0E0,0E0,0E0,1.990509E-1,3.413979E-3,0E0,4.3968964E-1,8.599222E-3,4.5063127E-2,2.8785944E-2,1.543566E-1,7.6574326E-2,2.888272E-3,5.786953E-1,3.4741467E-1,8.342087E-3,6.01284E-2,7.5779736E-1,4.5350778E-1,2.5271326E-1,1.1313343E-1,8.7737274E-1,3.3089924E-1,3.377037E-1,1.5472794E-1,2.1358109E-1,2.507553E-1,3.242596E-1,7.2810364E-1,0E0,2.8194773E-1,0E0,0E0,0E0,0E0,0E0,0E0,0E0,0E0,0E0,0E0,0E0,0E0,0E0,0E0,0E0,0E0,0E0,0E0,0E0,0E0,0E0,0E0,0E0,0E0,0E0,0E0,0E0,0E0,0E0,0E0,0E0,0E0,0E0,0E0,0E0,0E0,0E0,0E0,0E0,0E0,0E0,0E0,0E0,0E0,0E0,0E0,0E0,0E0,0E0,0E0,0E0,0E0],"parents":[2147483647,0,0,1,1,2,2,3,3,4,4,5,5,6,6,7,7,8,8,9,9,10,10,11,11,12,12,13,13,14,14,15,15,16,16,17,17,18,18,19,19,20,20,21,21,22,22,23,23,24,24,25,25,26,26,27,27,28,28,29,29,33,33,34,34,36,36,37,37,38,38,39,39,40,40,41,41,42,42,43,43,44,44,45,45,46,46,47,47,48,48,49,49,50,50,51,51,52,52,53,53,54,54,55,55,56,56,57,57,58,58,60,60],"right_children":[2,4,6,8,10,12,14,16,18,20,22,24,26,28,30,32,34,36,38,40,42,44,46,48,50,52,54,56,58,60,-1,-1,-1,62,64,-1,66,68,70,72,74,76,78,80,82,84,86,88,90,92,94,96,98,100,102,104,106,108,110,-1,112,-1,-1,-1,-1,-1,-1,-1,-1,-1,-1,-1,-1,-1,-1,-1,-1,-1,-1,-1,-1,-1,-1,-1,-1,-1,-1,-1,-1,-1,-1,-1,-1,-1,-1,-1,-1,-1,-1,-1,-1,-1,-1,-1,-1,-1,-1,-1,-1,-1,-1,-1,-1],"split_conditions":[1.24E3,9.2E2,1.9666666E3,7.65E2,2.026712E2,1.52E3,3.05E3,6.7E2,5.1E1,1E0,5.1E1,1.42E3,1.715E3,1E0,3.95E3,5.1E1,5.1E1,8.2E2,8.15E2,1.06E3,5.1E1,1.325E3,2.898077E2,5.1E1,1.4633334E3,5.1E1,1.8125E3,2.3583333E3,1.99544E2,1E0,1.5953312E-2,-1.1214512E-2,-1.9348526E-3,6.75E2,7.45E2,-7.742789E-3,1.105E3,1E0,4E0,1.14E3,1.305E3,8.55E2,9.85E2,1.12E3,1E0,5.9E2,1.1818182E3,1.3254546E3,2.898077E2,1.99544E2,1.91E3,1.46E3,2.898077E2,1.385E3,1.7933334E3,2.1166667E3,2.8E3,5E0,3.3E1,1.2605561E-2,3.4E1,-1.0090209E-2,-8.746839E-3,-1.3114756E-3,-1.5995979E-4,-6.588586E-3,-4.173425E-3,-5.0226215E-4,-2.0705562E-3,-6.425446E-4,1.3567418E-3,-4.4674515E-3,-1.4502477E-3,-2.3353149E-3,1.5444618E-4,-6.6598724E-3,-5.4590437E-3,-1.0411441E-3,-2.6385784E-5,-3.408351E-3,-2.1329734E-3,5.8069016E-4,-1.6765345E-3,4.26085E-4,2.3949158E-3,-1.7403618E-3,3.8822077E-4,-1.0922955E-3,-6.258795E-5,4.0808734E-3,2.980019E-4,-1.3551392E-3,6.045719E-4,1.4258298E-3,2.927325E-3,9.4303663E-4,2.4837593E-3,6.488757E-3,3.2093634E-3,1.7656352E-3,3.5352996E-3,3.5143578E-3,4.550175E-3,5.697228E-3,7.178723E-3,8.536695E-3,1.0469845E-2,1.1390114E-3,-6.1921384E-3,5.7972507E-3,4.020295E-3,8.890224E-3,1.3846707E-3],"split_indices":[8,8,8,8,7,8,8,9,1,2,1,8,8,2,8,1,1,9,9,9,1,9,7,1,9,1,9,8,7,2,0,0,0,8,9,0,9,5,2,8,9,9,8,8,5,9,8,9,7,7,9,9,7,9,8,9,8,2,1,0,1,0,0,0,0,0,0,0,0,0,0,0,0,0,0,0,0,0,0,0,0,0,0,0,0,0,0,0,0,0,0,0,0,0,0,0,0,0,0,0,0,0,0,0,0,0,0,0,0,0,0,0,0],"split_type":[0,0,0,0,0,0,0,0,0,0,0,0,0,0,0,0,0,0,0,0,0,0,0,0,0,0,0,0,0,0,0,0,0,0,0,0,0,0,0,0,0,0,0,0,0,0,0,0,0,0,0,0,0,0,0,0,0,0,0,0,0,0,0,0,0,0,0,0,0,0,0,0,0,0,0,0,0,0,0,0,0,0,0,0,0,0,0,0,0,0,0,0,0,0,0,0,0,0,0,0,0,0,0,0,0,0,0,0,0,0,0,0,0],"sum_hessian":[5.684E3,1.958E3,3.726E3,1.21E3,7.48E2,2.796E3,9.3E2,6.37E2,5.73E2,3.01E2,4.47E2,1.135E3,1.661E3,7.51E2,1.79E2,2.49E2,3.88E2,5.58E2,1.5E1,9.3E1,2.08E2,4.19E2,2.8E1,6.72E2,4.63E2,8.03E2,8.58E2,4.11E2,3.4E2,1.25E2,5.4E1,2.48E2,1E0,3.83E2,5E0,2.2E2,3.38E2,5E0,1E1,2.3E1,7E1,2.06E2,2E0,3.46E2,7.3E1,1.6E1,1.2E1,6.43E2,2.9E1,2.23E2,2.4E2,7.58E2,4.5E1,4.48E2,4.1E2,2.07E2,2.04E2,4E0,3.36E2,1.19E2,6E0,9.2E1,2.91E2,4E0,1E0,3.13E2,2.5E1,2E0,3E0,3E0,7E0,2.1E1,2E0,6.4E1,6E0,4.3E1,1.63E2,1E0,1E0,1.43E2,2.03E2,2.1E1,5.2E1,1E0,1.5E1,8E0,4E0,3.3E2,3.13E2,1.1E1,1.8E1,1.5E1,2.08E2,2.28E2,1.2E1,9.7E1,6.61E2,1E1,3.5E1,2.9E1,4.19E2,5.8E1,3.52E2,5.9E1,1.48E2,1.57E2,4.7E1,2E0,2E0,2.57E2,7.9E1,4E0,2E0],"tree_param":{"num_deleted":"0","num_feature":"11","num_nodes":"113","size_leaf_vector":"1"}},{"base_weights":[6.154805E-4,-4.290848E-1,2.291104E-1,-5.461845E-1,-2.0257679E-1,1.2794945E-1,5.2645016E-1,-6.717801E-1,-4.5853692E-1,-2.987627E-1,-1.2846437E-1,7.7050016E-3,2.1158664E-1,4.2905137E-1,8.464853E-1,-7.438106E-1,-6.11146E-1,-7.927771E-3,-4.1174984E-1,-3.2332307E-1,-1.5985559E-1,-1.4260425E-1,3.6691695E-2,-3.1603117E-2,7.1869284E-2,1.5931606E-1,2.5879782E-1,4.992849E-1,3.544438E-1,7.6434714E-1,1.53797325E-2,-1.1259105E-2,-4.867246E-1,-9.448084E-3,-7.934773E-3,-4.2438105E-1,-2.8095996E-1,-7.3086023E-3,-3.271628E-1,-1.9369064E-1,7.6527067E-4,-2.1763448E-1,-1.2921293E-1,-2.7911663E-2,1.7514992E-1,-6.697942E-2,-1.330136E-3,3.8489778E-2,1.0949883E-1,1.311866E-1,1.8675208E-1,2.4348064E-1,3.2563776E-1,4.3412283E-1,5.815824E-1,-5.032425E-3,3.593032E-1,4.912106E-3,7.738139E-1,-2.5231773E-3,-9.269184E-3,-6.501645E-3,-4.131281E-3,-8.73971E-4,-4.62025E-3,-1.0333371E-3,5.427193E-4,-5.583036E-3,-4.3865074E-3,-4.9141003E-3,-2.375155E-3,3.0936813E-3,-2.0452356E-3,-3.3928456E-3,1.6401171E-3,-2.4021056E-3,-1.543651E-3,7.146504E-4,-1.4226668E-3,9.2743454E-4,3.22325E-3,-1.1488977E-3,1.1847552E-4,-6.940313E-4,2.9521124E-4,2.6227417E-3,4.922081E-4,1.1655455E-3,1.9560633E-3,1.7750984E-3,3.2647455E-3,2.8233638E-3,-2.9165053E-3,2.1621897E-3,3.7224763E-3,5.6927893E-3,4.665008E-3,5.4859514E-3,6.9822427E-3,7.909901E-3,9.50883E-3,5.725083E-3,4.6064435E-3,9.259656E-3,1.1980873E-2],"categories":[],"categories_nodes":[],"categories_segments":[],"categories_sizes":[],"default_left":[0,0,0,0,0,0,0,0,0,0,0,0,0,0,0,0,0,0,0,0,0,0,0,0,0,0,0,0,0,0,0,0,0,0,0,0,0,0,0,0,0,0,0,0,0,0,0,0,0,0,0,0,0,0,0,0,0,0,0,0,0,0,0,0,0,0,0,0,0,0,0,0,0,0,0,0,0,0,0,0,0,0,0,0,0,0,0,0,0,0,0,0,0,0,0,0,0,0,0,0,0,0,0,0,0],"id":3,"left_children":[1,3,5,7,9,11,13,15,17,19,21,23,25,27,29,31,33,-1,35,37,39,41,43,45,47,49,51,53,55,57,-1,-1,59,-1,-1,61,63,65,67,69,71,73,75,77,79,81,83,85,87,89,91,93,95,97,99,-1,101,-1,103,-1,-1,-1,-1,-1,-1,-1,-1,-1,-1,-1,-1,-1,-1,-1,-1,-1,-1,-1,-1,-1,-1,-1,-1,-1,-1,-1,-1,-1,-1,-1,-1,-1,-1,-1,-1,-1,-1,-1,-1,-1,-1,-1,-1,-1,-1],"loss_changes":[5.5886536E2,5.2300842E1,1.11706894E2,1.4024567E1,4.773407E0,2.7896236E1,2.9031097E1,1.8733215E0,2.3035278E0,9.479141E-1,8.9964676E-1,2.8750312E0,3.9960098E0,3.6220093E0,2.4331512E0,5.2261353E-2,1.2068176E-1,0E0,6.506195E-1,2.985344E-1,2.5014055E-1,3.2655716E-1,2.8217956E-1,7.5706995E-1,5.3965735E-1,5.76704E-1,7.991371E-1,1.7370758E0,1.310749E0,3.835144E-1,0E0,0E0,2.7221465E-1,0E0,0E0,4.51622E-1,2.4717093E-1,1.3205023E-2,2.7437973E-1,1.2799954E-1,2.816898E-1,1.7019391E-1,2.2919083E-1,1.157751E-1,3.174025E-2,2.3527837E-1,3.6159503E-1,1.7304832E-1,1.24801874E-1,4.052205E-1,2.5657558E-1,2.9088974E-1,5.7907104E-3,2.823105E-1,1.2290573E-1,0E0,2.950325E-1,0E0,9.173584E-2,0E0,0E0,0E0,0E0,0E0,0E0,0E0,0E0,0E0,0E0,0E0,0E0,0E0,0E0,0E0,0E0,0E0,0E0,0E0,0E0,0E0,0E0,0E0,0E0,0E0,0E0,0E0,0E0,0E0,0E0,0E0,0E0,0E0,0E0,0E0,0E0,0E0,0E0,0E0,0E0,0E0,0E0,0E0,0E0,0E0,0E0],"parents":[2147483647,0,0,1,1,2,2,3,3,4,4,5,5,6,6,7,7,8,8,9,9,10,10,11,11,12,12,13,13,14,14,15,15,16,16,18,18,19,19,20,20,21,21,22,22,23,23,24,24,25,25,26,26,27,27,28,28,29,29,32,32,35,35,36,36,37,37,38,38,39,39,40,40,41,41,42,42,43,43,44,44,45,45,46,46,47,47,48,48,49,49,50,50,51,51,52,52,53,53,54,54,56,56,58,58],"right_children":[2,4,6,8,10,12,14,16,18,20,22,24,26,28,30,32,34,-1,36,38,40,42,44,46,48,50,52,54,56,58,-1,-1,60,-1,-1,62,64,66,68,70,72,74,76,78,80,82,84,86,88,90,92,94,96,98,100,-1,102,-1,104,-1,-1,-1,-1,-1,-1,-1,-1,-1,-1,-1,-1,-1,-1,-1,-1,-1,-1,-1,-1,-1,-1,-1,-1,-1,-1,-1,-1,-1,-1,-1,-1,-1,-1,-1,-1,-1,-1,-1,-1,-1,-1,-1,-1,-1,-1],"split_conditions":[1.224E3,9.25E2,1.975E3,7.45E2,1.1E3,1.515E3,2.7666667E3,6.7E2,8.1E2,1.14E3,1.56E3,1.42E3,1.715E3,1E0,3.6E3,1.2E1,7.65E2,-7.927771E-3,1.2E1,6.75E2,1.2E1,1.06E3,1.48E3,1.32E3,1.49E3,1.65E3,1.9666666E3,2.3583333E3,8.05E2,2.2522727E3,1.53797325E-2,-1.1259105E-2,1E0,-9.448084E-3,-7.934773E-3,1.105E3,8.25E2,2E0,9.466667E2,9.466667E2,8.65E2,1.2E1,7E0,1E0,1E0,1.2E1,1.32E3,9.466667E2,1.48E3,1.2E1,1E1,1.46E3,1E0,2.1166667E3,2.6E3,-5.032425E-3,7E0,4.912106E-3,2.8E3,-2.5231773E-3,-9.269184E-3,-6.501645E-3,-4.131281E-3,-8.73971E-4,-4.62025E-3,-1.0333371E-3,5.427193E-4,-5.583036E-3,-4.3865074E-3,-4.9141003E-3,-2.375155E-3,3.0936813E-3,-2.0452356E-3,-3.3928456E-3,1.6401171E-3,-2.4021056E-3,-1.543651E-3,7.146504E-4,-1.4226668E-3,9.2743454E-4,3.22325E-3,-1.1488977E-3,1.1847552E-4,-6.940313E-4,2.9521124E-4,2.6227417E-3,4.922081E-4,1.1655455E-3,1.9560633E-3,1.7750984E-3,3.2647455E-3,2.8233638E-3,-2.9165053E-3,2.1621897E-3,3.7224763E-3,5.6927893E-3,4.665008E-3,5.4859514E-3,6.9822427E-3,7.909901E-3,9.50883E-3,5.725083E-3,4.6064435E-3,9.259656E-3,1.1980873E-2],"split_indices":[8,8,8,8,10,8,10,10,9,8,10,8,8,2,8,0,9,0,0,10,0,8,9,8,10,9,10,8,9,9,0,0,5,0,0,9,9,2,9,9,10,0,0,5,2,0,9,10,8,0,3,9,2,9,8,0,0,0,8,0,0,0,0,0,0,0,0,0,0,0,0,0,0,0,0,0,0,0,0,0,0,0,0,0,0,0,0,0,0,0,0,0,0,0,0,0,0,0,0,0,0,0,0,0,0],"split_type":[0,0,0,0,0,0,0,0,0,0,0,0,0,0,0,0,0,0,0,0,0,0,0,0,0,0,0,0,0,0,0,0,0,0,0,0,0,0,0,0,0,0,0,0,0,0,0,0,0,0,0,0,0,0,0,0,0,0,0,0,0,0,0,0,0,0,0,0,0,0,0,0,0,0,0,0,0,0,0,0,0,0,0,0,0,0,0,0,0,0,0,0,0,0,0,0,0,0,0,0,0,0,0,0,0],"sum_hessian":[5.69E3,1.975E3,3.715E3,1.301E3,6.74E2,2.773E3,9.42E2,5.32E2,7.69E2,2.92E2,3.82E2,1.138E3,1.635E3,7.24E2,2.18E2,2.38E2,2.94E2,3.04E2,4.65E2,2.47E2,4.5E1,3.52E2,3E1,7.06E2,4.32E2,7.78E2,8.57E2,3.7E2,3.54E2,1.53E2,6.5E1,2.3E2,8E0,2.34E2,6E1,4.22E2,4.3E1,3E0,2.44E2,3.7E1,8E0,5.1E1,3.01E2,2.1E1,9E0,3.25E2,3.81E2,2.3E2,2.02E2,3.87E2,3.91E2,7.01E2,1.56E2,2.1E2,1.6E2,2E0,3.52E2,4E0,1.49E2,3E0,5E0,3.96E2,2.6E1,5E0,3.8E1,1E0,2E0,1.02E2,1.42E2,6E0,3.1E1,3E0,5E0,5E1,1E0,1.36E2,1.65E2,1E1,1.1E1,3E0,6E0,2.88E2,3.7E1,1.21E2,2.6E2,8E0,2.22E2,8.2E1,1.2E2,3.39E2,4.8E1,3.9E2,1E0,3.3E1,6.68E2,2.8E1,1.28E2,7E1,1.4E2,8.4E1,7.6E1,2.42E2,1.1E2,2.4E1,1.25E2],"tree_param":{"num_deleted":"0","num_feature":"11","num_nodes":"105","size_leaf_vector":"1"}},{"base_weights":[2.140103E-3,-4.1958252E-1,2.2770683E-1,-5.5091125E-1,-2.1831252E-1,1.2842114E-1,5.2288663E-1,-6.602568E-1,-4.6449462E-1,-3.2286194E-1,-1.400532E-1,1.153503E-2,2.0781517E-1,4.2769682E-1,8.5905766E-1,-7.0676553E-1,-5.593446E-1,-4.8424143E-1,-2.1784078E-1,-1.7333916E-1,-3.7664214E-1,1.6014637E-1,-1.4999156E-1,-2.7667506E-2,6.996803E-2,1.57045E-1,2.5318995E-1,5.0302756E-1,3.4517923E-1,7.740558E-1,1.5146683E-2,-7.11238E-1,-1.9803678E-3,-8.495514E-3,-3.1289297E-1,-8.36604E-3,-4.5628646E-1,-3.1914927E-2,-3.2392186E-1,-2.8296804E-1,-1.2012365E-1,-1.6101372E-3,-3.795133E-1,5.37293E-4,2.6477731E-3,-2.3447427E-1,-1.1856624E-1,-6.2184576E-2,-1.4844694E-3,3.545359E-2,1.0954886E-1,1.2556805E-1,1.868785E-1,2.251788E-1,2.836225E-1,4.3244398E-1,5.853914E-1,-1.355474E-1,3.5247573E-1,8.134489E-3,1.18516795E-2,-1.14162015E-2,-9.970508E-3,-6.535971E-3,-5.796909E-5,-7.416958E-3,-6.510017E-3,-1.0862874E-3,5.684075E-4,-5.433371E-3,2.6977253E-3,-4.348691E-3,-6.638753E-4,-2.054133E-3,-2.593653E-4,-6.5214606E-3,-5.3421427E-3,-5.710305E-3,-3.0385186E-3,-2.0082777E-3,5.2501296E-4,-1.8069377E-3,-7.358364E-4,-3.803244E-4,4.3973752E-4,3.567758E-4,1.6401116E-3,2.1363648E-3,1.4331382E-3,1.7181811E-3,3.0119913E-3,-3.9719172E-5,2.846352E-3,6.0418593E-3,3.3052126E-3,3.9140056E-3,4.6581356E-3,5.638406E-3,7.0226523E-3,8.026887E-3,9.417936E-3,1.550442E-3,-6.133678E-3,5.336904E-3,-3.2711506E-4],"categories":[],"categories_nodes":[],"categories_segments":[],"categories_sizes":[],"default_left":[0,0,0,0,0,0,0,0,0,0,0,0,0,0,0,0,0,0,0,0,0,0,0,0,0,0,0,0,0,0,0,0,0,0,0,0,0,0,0,0,0,0,0,0,0,0,0,0,0,0,0,0,0,0,0,0,0,0,0,0,0,0,0,0,0,0,0,0,0,0,0,0,0,0,0,0,0,0,0,0,0,0,0,0,0,0,0,0,0,0,0,0,0,0,0,0,0,0,0,0,0,0,0,0,0],"id":4,"left_children":[1,3,5,7,9,11,13,15,17,19,21,23,25,27,29,31,33,35,37,39,41,43,45,47,49,51,53,55,57,59,-1,61,-1,-1,63,-1,65,67,69,71,73,-1,75,-1,-1,77,79,81,83,85,87,89,91,93,95,97,99,101,103,-1,-1,-1,-1,-1,-1,-1,-1,-1,-1,-1,-1,-1,-1,-1,-1,-1,-1,-1,-1,-1,-1,-1,-1,-1,-1,-1,-1,-1,-1,-1,-1,-1,-1,-1,-1,-1,-1,-1,-1,-1,-1,-1,-1,-1,-1],"loss_changes":[5.4431476E2,5.258618E1,1.0918985E2,1.1089172E1,6.410351E0,2.5898243E1,2.964862E1,2.0921173E0,3.191925E0,2.6446533E0,1.3755426E0,2.5904515E0,3.7889633E0,4.3827667E0,1.8575745E0,8.2891846E-1,1.2049484E-1,1.0316467E0,1.015269E0,4.9689913E-1,1.5024185E-1,2.4209112E-2,1.1376972E0,6.1175436E-1,6.163299E-1,7.1558E-1,6.828804E-1,1.9618073E0,1.285965E0,7.759094E-2,0E0,3.1985474E-1,0E0,0E0,2.6404005E-1,0E0,1.7591858E-1,5.929526E-2,7.019086E-1,3.5243988E-2,1.0659045E-1,0E0,1.602211E-1,0E0,0E0,4.7336912E-1,7.6218605E-1,2.175057E-1,2.845376E-1,2.0776525E-1,8.355045E-2,2.970891E-1,2.198E-1,3.0682755E-1,1.7304993E-1,2.463417E-1,3.3340454E-2,4.341236E-1,4.399109E-1,0E0,0E0,0E0,0E0,0E0,0E0,0E0,0E0,0E0,0E0,0E0,0E0,0E0,0E0,0E0,0E0,0E0,0E0,0E0,0E0,0E0,0E0,0E0,0E0,0E0,0E0,0E0,0E0,0E0,0E0,0E0,0E0,0E0,0E0,0E0,0E0,0E0,0E0,0E0,0E0,0E0,0E0,0E0,0E0,0E0,0E0],"parents":[2147483647,0,0,1,1,2,2,3,3,4,4,5,5,6,6,7,7,8,8,9,9,10,10,11,11,12,12,13,13,14,14,15,15,16,16,17,17,18,18,19,19,20,20,21,21,22,22,23,23,24,24,25,25,26,26,27,27,28,28,29,29,31,31,34,34,36,36,37,37,38,38,39,39,40,40,42,42,45,45,46,46,47,47,48,48,49,49,50,50,51,51,52,52,53,53,54,54,55,55,56,56,57,57,58,58],"right_children":[2,4,6,8,10,12,14,16,18,20,22,24,26,28,30,32,34,36,38,40,42,44,46,48,50,52,54,56,58,60,-1,62,-1,-1,64,-1,66,68,70,72,74,-1,76,-1,-1,78,80,82,84,86,88,90,92,94,96,98,100,102,104,-1,-1,-1,-1,-1,-1,-1,-1,-1,-1,-1,-1,-1,-1,-1,-1,-1,-1,-1,-1,-1,-1,-1,-1,-1,-1,-1,-1,-1,-1,-1,-1,-1,-1,-1,-1,-1,-1,-1,-1,-1,-1,-1,-1,-1,-1],"split_conditions":[1.24E3,9E2,1.975E3,7.45E2,2.02778E2,1.52E3,2.9333333E3,7.15E2,2.02778E2,1E0,2.898077E2,1.42E3,1.715E3,1E0,3.6E3,2.02778E2,2.02778E2,7.65E2,2.948866E2,1.06E3,6.2E2,6.75E2,1.1E3,1.32E3,1.49E3,1.65E3,1.8125E3,2.3583333E3,1.99544E2,2.6E3,1.5146683E-2,6.4E2,-1.9803678E-3,-8.495514E-3,1.1E1,-8.36604E-3,8.05E2,8.35E2,1.4066666E3,1.2033334E3,1.305E3,-1.6101372E-3,8.65E2,5.37293E-4,2.6477731E-3,9.466667E2,1.505E3,2.02778E2,1.4E3,1.2E1,3E0,1.2E1,1.994368E2,8.85E2,1.875E3,2.175E3,2.6E3,5E0,2.7E3,8.134489E-3,1.18516795E-2,-1.14162015E-2,-9.970508E-3,-6.535971E-3,-5.796909E-5,-7.416958E-3,-6.510017E-3,-1.0862874E-3,5.684075E-4,-5.433371E-3,2.6977253E-3,-4.348691E-3,-6.638753E-4,-2.054133E-3,-2.593653E-4,-6.5214606E-3,-5.3421427E-3,-5.710305E-3,-3.0385186E-3,-2.0082777E-3,5.2501296E-4,-1.8069377E-3,-7.358364E-4,-3.803244E-4,4.3973752E-4,3.567758E-4,1.6401116E-3,2.1363648E-3,1.4331382E-3,1.7181811E-3,3.0119913E-3,-3.9719172E-5,2.846352E-3,6.0418593E-3,3.3052126E-3,3.9140056E-3,4.6581356E-3,5.638406E-3,7.0226523E-3,8.026887E-3,9.417936E-3,1.550442E-3,-6.133678E-3,5.336904E-3,-3.2711506E-4],"split_indices":[8,8,8,8,7,8,10,10,7,2,7,8,8,2,8,7,7,10,7,10,10,10,10,8,10,10,10,8,7,8,0,8,0,0,0,0,8,8,10,8,10,0,10,0,0,8,10,7,10,0,3,0,7,10,8,10,8,2,10,0,0,0,0,0,0,0,0,0,0,0,0,0,0,0,0,0,0,0,0,0,0,0,0,0,0,0,0,0,0,0,0,0,0,0,0,0,0,0,0,0,0,0,0,0,0],"split_type":[0,0,0,0,0,0,0,0,0,0,0,0,0,0,0,0,0,0,0,0,0,0,0,0,0,0,0,0,0,0,0,0,0,0,0,0,0,0,0,0,0,0,0,0,0,0,0,0,0,0,0,0,0,0,0,0,0,0,0,0,0,0,0,0,0,0,0,0,0,0,0,0,0,0,0,0,0,0,0,0,0,0,0,0,0,0,0,0,0,0,0,0,0,0,0,0,0,0,0,0,0,0,0,0,0],"sum_hessian":[5.72E3,1.993E3,3.727E3,1.205E3,7.88E2,2.79E3,9.37E2,5.29E2,6.76E2,3.36E2,4.52E2,1.129E3,1.661E3,7.32E2,2.05E2,3.58E2,1.71E2,6.25E2,5.1E1,9E1,2.46E2,1.4E1,4.38E2,6.76E2,4.53E2,7.86E2,8.75E2,3.8E2,3.52E2,1.35E2,7E1,3.55E2,3E0,1.65E2,6E0,1.67E2,4.58E2,1.9E1,3.2E1,2.8E1,6.2E1,3E0,2.43E2,2E0,1.2E1,1.17E2,3.21E2,2.91E2,3.85E2,2.43E2,2.1E2,3.85E2,4.01E2,4.6E2,4.15E2,2.08E2,1.72E2,5E0,3.47E2,1.1E1,1.24E2,1.64E2,1.91E2,4E0,2E0,1.61E2,2.97E2,1.2E1,7E0,3E1,2E0,2.7E1,1E0,5.3E1,9E0,6.7E1,1.76E2,1.9E1,9.8E1,2.92E2,2.9E1,5.2E1,2.39E2,2.17E2,1.68E2,2.11E2,3.2E1,6E1,1.5E2,3.38E2,4.7E1,6E0,3.95E2,1E1,4.5E2,2.31E2,1.84E2,8.5E1,1.23E2,8.5E1,8.7E1,3E0,2E0,3.44E2,3E0],"tree_param":{"num_deleted":"0","num_feature":"11","num_nodes":"105","size_leaf_vector":"1"}},{"base_weights":[-1.9360262E-3,-4.0560323E-1,2.0998707E-1,-4.9903718E-1,-1.1247559E-1,1.3246202E-1,5.5504036E-1,-6.2976974E-1,-4.0055546E-1,-1.4832413E-1,2.5196034E-1,6.023524E-3,2.1353696E-1,4.4960517E-1,8.22035E-1,-6.9450873E-1,-5.63674E-1,-4.2532048E-1,-2.1428986E-1,-1.8723316E-1,-9.689585E-2,3.3039215E-1,-6.240628E-3,-2.6014667E-2,7.480547E-2,1.622878E-1,2.7128512E-1,5.116278E-1,3.336232E-1,8.402587E-1,-3.1227399E-2,-1.0435775E-2,-2.3329747E-3,-8.4736645E-3,-1.2586606E-3,-4.6796766E-1,-3.737764E-1,-1.3428196E-1,-3.4009025E-1,-2.4949071E-1,-1.4842027E-1,-1.4774486E-1,-3.8102075E-2,2.5565857E-1,6.385513E-3,-4.8733234E-2,1.8497609E-3,-3.270152E-2,2.1680632E-1,-1.5195782E-1,8.389466E-2,-4.771237E-2,1.6667141E-1,-6.1681747E-2,2.7482083E-1,4.622966E-1,8.498089E-3,3.8348383E-1,2.0130199E-1,1.1521948E-2,1.4584858E-2,-4.599452E-3,1.7142122E-3,-7.0318114E-3,-1.0135102E-3,-6.3549327E-3,-5.1845172E-3,-2.1668717E-3,-4.6173128E-4,-5.3502126E-3,-1.5862852E-3,-2.077052E-3,-4.1418714E-3,1.7444694E-3,-2.2636584E-3,-5.143415E-4,-3.1920075E-3,-6.0046823E-5,-1.8785291E-3,4.1478753E-4,3.9851433E-3,-1.4577616E-3,1.2084483E-3,-9.6320146E-4,5.5022167E-5,3.6800592E-3,4.0624023E-4,-5.710738E-4,-5.58174E-3,1.2017814E-3,3.991478E-3,1.7073678E-3,-5.805702E-3,1.9879723E-3,2.8076004E-3,2.4076633E-3,-6.526476E-3,3.7027209E-3,4.7034007E-3,3.142619E-3,7.0280377E-3,4.888288E-3,6.22126E-3,8.6572283E-4,4.680888E-3],"categories":[],"categories_nodes":[],"categories_segments":[],"categories_sizes":[],"default_left":[0,0,0,0,0,0,0,0,0,0,0,0,0,0,0,0,0,0,0,0,0,0,0,0,0,0,0,0,0,0,0,0,0,0,0,0,0,0,0,0,0,0,0,0,0,0,0,0,0,0,0,0,0,0,0,0,0,0,0,0,0,0,0,0,0,0,0,0,0,0,0,0,0,0,0,0,0,0,0,0,0,0,0,0,0,0,0,0,0,0,0,0,0,0,0,0,0,0,0,0,0,0,0,0,0],"id":5,"left_children":[1,3,5,7,9,11,13,15,17,19,21,23,25,27,29,31,33,35,37,39,41,43,45,47,49,51,53,55,57,59,61,-1,-1,-1,-1,63,65,67,69,71,73,75,77,79,-1,81,-1,83,85,87,89,91,93,95,97,99,-1,101,103,-1,-1,-1,-1,-1,-1,-1,-1,-1,-1,-1,-1,-1,-1,-1,-1,-1,-1,-1,-1,-1,-1,-1,-1,-1,-1,-1,-1,-1,-1,-1,-1,-1,-1,-1,-1,-1,-1,-1,-1,-1,-1,-1,-1,-1,-1],"loss_changes":[4.8804187E2,5.373404E1,9.999927E1,1.8918274E1,6.2560725E0,3.1325756E1,1.8941727E1,2.3384857E0,3.8390198E0,8.503027E-1,8.7286234E-1,2.6353066E0,5.4666443E0,3.3828964E0,3.0273132E0,9.913635E-2,1.4311981E-1,1.4759369E0,9.809642E-1,5.574045E-1,5.594059E-1,1.2621737E-1,6.6567495E-2,1.3320355E0,7.959647E-1,9.1838646E-1,1.0458908E0,6.0492706E-1,1.0773869E0,1.053482E0,2.3540875E-1,0E0,0E0,0E0,0E0,1.0192871E-1,3.3790588E-1,6.296015E-2,1.13904476E-1,2.3675919E-1,1.1907148E-1,7.3817587E-1,2.639311E-1,4.0619254E-2,0E0,6.421021E-2,0E0,9.113672E-1,1.1244154E-1,3.6192772E-1,2.304821E-1,1.1951711E0,6.5342903E-1,8.9954233E-1,8.599472E-1,1.7627335E-1,0E0,9.1753006E-2,7.771549E-1,0E0,0E0,0E0,0E0,0E0,0E0,0E0,0E0,0E0,0E0,0E0,0E0,0E0,0E0,0E0,0E0,0E0,0E0,0E0,0E0,0E0,0E0,0E0,0E0,0E0,0E0,0E0,0E0,0E0,0E0,0E0,0E0,0E0,0E0,0E0,0E0,0E0,0E0,0E0,0E0,0E0,0E0,0E0,0E0,0E0,0E0],"parents":[2147483647,0,0,1,1,2,2,3,3,4,4,5,5,6,6,7,7,8,8,9,9,10,10,11,11,12,12,13,13,14,14,15,15,16,16,17,17,18,18,19,19,20,20,21,21,22,22,23,23,24,24,25,25,26,26,27,27,28,28,29,29,30,30,35,35,36,36,37,37,38,38,39,39,40,40,41,41,42,42,43,43,45,45,47,47,48,48,49,49,50,50,51,51,52,52,53,53,54,54,55,55,57,57,58,58],"right_children":[2,4,6,8,10,12,14,16,18,20,22,24,26,28,30,32,34,36,38,40,42,44,46,48,50,52,54,56,58,60,62,-1,-1,-1,-1,64,66,68,70,72,74,76,78,80,-1,82,-1,84,86,88,90,92,94,96,98,100,-1,102,104,-1,-1,-1,-1,-1,-1,-1,-1,-1,-1,-1,-1,-1,-1,-1,-1,-1,-1,-1,-1,-1,-1,-1,-1,-1,-1,-1,-1,-1,-1,-1,-1,-1,-1,-1,-1,-1,-1,-1,-1,-1,-1,-1,-1,-1,-1],"split_conditions":[1.2033334E3,2.02778E2,2.1166667E3,7.65E2,5.2E1,1.525E3,2.95E3,6.9E2,1.0266666E3,3E0,2.898077E2,1.425E3,1.7833334E3,1E0,1E0,5.1E1,5.1E1,8.7E2,1E0,1.06E3,2.9E1,8.65E2,1E0,3.641424E2,1.994965E2,1.994965E2,1.994368E2,2.45E3,2.8E1,3.6E3,3.4E1,-1.0435775E-2,-2.3329747E-3,-8.4736645E-3,-1.2586606E-3,5.1E1,1E0,1.1E1,2.026101E2,3.006247E2,1E0,2E1,2E0,5.9E2,6.385513E-3,4E0,1.8497609E-3,1.34E3,2E0,1E0,3.677045E2,1E0,1.65E3,1E0,1.95E3,2.903935E2,8.498089E-3,6E0,5E0,1.1521948E-2,1.4584858E-2,-4.599452E-3,1.7142122E-3,-7.0318114E-3,-1.0135102E-3,-6.3549327E-3,-5.1845172E-3,-2.1668717E-3,-4.6173128E-4,-5.3502126E-3,-1.5862852E-3,-2.077052E-3,-4.1418714E-3,1.7444694E-3,-2.2636584E-3,-5.143415E-4,-3.1920075E-3,-6.0046823E-5,-1.8785291E-3,4.1478753E-4,3.9851433E-3,-1.4577616E-3,1.2084483E-3,-9.6320146E-4,5.5022167E-5,3.6800592E-3,4.0624023E-4,-5.710738E-4,-5.58174E-3,1.2017814E-3,3.991478E-3,1.7073678E-3,-5.805702E-3,1.9879723E-3,2.8076004E-3,2.4076633E-3,-6.526476E-3,3.7027209E-3,4.7034007E-3,3.142619E-3,7.0280377E-3,4.888288E-3,6.22126E-3,8.6572283E-4,4.680888E-3],"split_indices":[9,7,9,9,1,9,9,9,9,2,7,9,9,2,2,1,1,9,2,9,1,9,6,7,7,7,7,9,1,9,1,0,0,0,0,1,4,0,7,7,2,1,5,9,0,2,0,9,5,2,7,2,9,2,9,7,0,2,2,0,0,0,0,0,0,0,0,0,0,0,0,0,0,0,0,0,0,0,0,0,0,0,0,0,0,0,0,0,0,0,0,0,0,0,0,0,0,0,0,0,0,0,0,0,0],"split_type":[0,0,0,0,0,0,0,0,0,0,0,0,0,0,0,0,0,0,0,0,0,0,0,0,0,0,0,0,0,0,0,0,0,0,0,0,0,0,0,0,0,0,0,0,0,0,0,0,0,0,0,0,0,0,0,0,0,0,0,0,0,0,0,0,0,0,0,0,0,0,0,0,0,0,0,0,0,0,0,0,0,0,0,0,0,0,0,0,0,0,0,0,0,0,0,0,0,0,0,0,0,0,0,0,0],"sum_hessian":[5.703E3,1.963E3,3.74E3,1.488E3,4.75E2,3.055E3,6.85E2,6.37E2,8.51E2,4.33E2,4.2E1,1.194E3,1.861E3,4.93E2,1.92E2,3.17E2,3.2E2,7.5E2,1.01E2,2.45E2,1.88E2,3.2E1,1E1,8.15E2,3.79E2,9.88E2,8.73E2,3.19E2,1.74E2,1.88E2,4E0,3.16E2,1E0,3.19E2,1E0,4.06E2,3.44E2,6.3E1,3.8E1,9.2E1,1.53E2,1E2,8.8E1,2E1,1.2E1,8E0,2E0,7.94E2,2.1E1,1.4E1,3.65E2,2E1,9.68E2,9E0,8.64E2,1.73E2,1.46E2,1.25E2,4.9E1,1.26E2,6.2E1,1E0,3E0,4.05E2,1E0,1.19E2,2.25E2,5.7E1,6E0,3.5E1,3E0,1.9E1,7.3E1,1E0,1.52E2,3.7E1,6.3E1,6.4E1,2.4E1,1E0,1.9E1,6E0,2E0,4.25E2,3.69E2,1.8E1,3E0,1E1,4E0,3.59E2,6E0,1.4E1,6E0,3.66E2,6.02E2,6E0,3E0,5.06E2,3.58E2,5E0,1.68E2,4.8E1,7.7E1,2.2E1,2.7E1],"tree_param":{"num_deleted":"0","num_feature":"11","num_nodes":"105","size_leaf_vector":"1"}},{"base_weights":[5.636873E-4,-4.0770465E-1,2.189732E-1,-5.110813E-1,-1.819221E-1,1.4459024E-1,5.932156E-1,-6.381376E-1,-4.3176302E-1,-2.8007123E-1,-1.2899601E-1,3.605434E-2,2.4698181E-1,4.7552058E-1,8.463577E-1,-7.0429826E-1,-5.66578E-1,-4.435085E-1,2.1377802E-2,-1.6702217E-1,-3.507462E-1,1.4708677E-1,-1.3782275E-1,-2.1449303E-2,1.0532862E-1,1.961636E-1,2.9872128E-1,5.2299684E-1,3.600522E-1,7.592016E-1,1.4762974E-2,-1.0614316E-2,-2.6901006E-3,-5.7288235E-1,-3.0910492E-2,-4.973517E-1,-3.842621E-1,-4.6433102E-2,8.1756316E-2,-3.6674698E-3,-1.3433762E-1,-3.5353792E-1,1.1225223E-4,5.099201E-4,2.468378E-3,-1.482653E-1,2.8474113E-2,-2.9161338E-2,1.11160226E-1,5.8646854E-2,1.2927069E-1,1.6653037E-1,2.180883E-1,2.65538E-1,3.342174E-1,4.7442427E-1,9.107603E-3,-9.737027E-2,3.720984E-1,1.1435693E-2,2.8099823E-3,-7.652766E-3,-8.937877E-3,-4.6701432E-5,-8.572626E-4,-8.125096E-3,-6.9840713E-3,-5.893991E-3,-4.120643E-3,9.809196E-5,-1.0067287E-3,4.1498934E-4,1.9685351E-3,-2.1772243E-3,2.690048E-4,-4.3537258E-4,-5.3371633E-3,-2.902553E-3,-1.7352895E-3,1.2240082E-3,-1.03705E-3,-9.330571E-4,1.2222999E-4,3.7688254E-3,6.959248E-4,5.8458664E-4,3.6567342E-3,1.9680988E-3,-1.7617356E-3,2.3805841E-3,4.755282E-3,2.9413593E-3,3.524453E-3,-1.0660815E-3,4.0357E-3,4.748567E-3,5.7813386E-3,2.9577136E-3,7.1447217E-3,1.2340664E-3,-4.7722077E-3,6.1019934E-3,3.524027E-3],"categories":[],"categories_nodes":[],"categories_segments":[],"categories_sizes":[],"default_left":[0,0,0,0,0,0,0,0,0,0,0,0,0,0,0,0,0,0,0,0,0,0,0,0,0,0,0,0,0,0,0,0,0,0,0,0,0,0,0,0,0,0,0,0,0,0,0,0,0,0,0,0,0,0,0,0,0,0,0,0,0,0,0,0,0,0,0,0,0,0,0,0,0,0,0,0,0,0,0,0,0,0,0,0,0,0,0,0,0,0,0,0,0,0,0,0,0,0,0,0,0,0,0],"id":6,"left_children":[1,3,5,7,9,11,13,15,17,19,21,23,25,27,29,31,33,35,37,39,41,43,45,47,49,51,53,55,57,59,-1,-1,-1,61,63,65,67,69,71,-1,73,75,-1,-1,-1,77,79,81,83,85,87,89,91,93,95,97,-1,99,101,-1,-1,-1,-1,-1,-1,-1,-1,-1,-1,-1,-1,-1,-1,-1,-1,-1,-1,-1,-1,-1,-1,-1,-1,-1,-1,-1,-1,-1,-1,-1,-1,-1,-1,-1,-1,-1,-1,-1,-1,-1,-1,-1,-1],"loss_changes":[5.0300638E2,4.579471E1,1.02216125E2,1.3309479E1,3.1793613E0,3.4075172E1,1.7741806E1,2.0439148E0,4.4430084E0,1.667202E0,1.0047836E0,5.937709E0,4.0904465E0,2.10318E0,1.5594177E0,3.3358765E-1,8.366852E-1,2.39917E0,9.3871266E-2,1.8239689E-1,1.346569E-1,2.0092845E-2,6.849551E-1,8.3673346E-1,7.479558E-1,4.8279E-1,8.299942E-1,9.140167E-1,7.250061E-1,7.891846E-2,0E0,0E0,0E0,5.6144714E-2,2.7396837E-3,3.4157562E-1,2.6346588E-1,1.2490345E-2,2.8485522E-2,0E0,1.04664564E-1,8.6299896E-2,0E0,0E0,0E0,5.214577E-1,1.3009869E-1,9.5100707E-1,3.9664036E-1,8.3190054E-1,2.284317E-1,3.5476017E-1,1.2320137E-1,5.0099754E-1,2.1502304E-1,6.1912537E-3,0E0,1.8481699E-1,4.8511696E-1,0E0,0E0,0E0,0E0,0E0,0E0,0E0,0E0,0E0,0E0,0E0,0E0,0E0,0E0,0E0,0E0,0E0,0E0,0E0,0E0,0E0,0E0,0E0,0E0,0E0,0E0,0E0,0E0,0E0,0E0,0E0,0E0,0E0,0E0,0E0,0E0,0E0,0E0,0E0,0E0,0E0,0E0,0E0,0E0],"parents":[2147483647,0,0,1,1,2,2,3,3,4,4,5,5,6,6,7,7,8,8,9,9,10,10,11,11,12,12,13,13,14,14,15,15,16,16,17,17,18,18,19,19,20,20,21,21,22,22,23,23,24,24,25,25,26,26,27,27,28,28,29,29,33,33,34,34,35,35,36,36,37,37,38,38,40,40,41,41,45,45,46,46,47,47,48,48,49,49,50,50,51,51,52,52,53,53,54,54,55,55,57,57,58,58],"right_children":[2,4,6,8,10,12,14,16,18,20,22,24,26,28,30,32,34,36,38,40,42,44,46,48,50,52,54,56,58,60,-1,-1,-1,62,64,66,68,70,72,-1,74,76,-1,-1,-1,78,80,82,84,86,88,90,92,94,96,98,-1,100,102,-1,-1,-1,-1,-1,-1,-1,-1,-1,-1,-1,-1,-1,-1,-1,-1,-1,-1,-1,-1,-1,-1,-1,-1,-1,-1,-1,-1,-1,-1,-1,-1,-1,-1,-1,-1,-1,-1,-1,-1,-1,-1,-1,-1],"split_conditions":[1.224E3,9.6E2,2.1833333E3,7.45E2,2.02778E2,1.6125E3,3E3,6.8E2,5.1E1,1E0,2.898077E2,1.45E3,1.8166666E3,1E0,3.6E3,5.1E1,5.1E1,8.45E2,7.65E2,1.06E3,5.1E1,6.75E2,1.515E3,5.1E1,1.49E3,1.7E3,1.91E3,2.55E3,2.911331E2,1E0,1.4762974E-2,-1.0614316E-2,-2.6901006E-3,3E0,6E0,7.65E2,1.2033334E3,2E0,1E0,-3.6674698E-3,4.7E1,6.2E2,1.1225223E-4,5.099201E-4,2.468378E-3,1.14E3,3.076588E2,1.37E3,2.898077E2,5.1E1,2.5409092E3,5.2E1,1.735E3,1.969664E2,2.0833333E3,1.936376E2,9.107603E-3,5E0,3.4E1,1.1435693E-2,2.8099823E-3,-7.652766E-3,-8.937877E-3,-4.6701432E-5,-8.572626E-4,-8.125096E-3,-6.9840713E-3,-5.893991E-3,-4.120643E-3,9.809196E-5,-1.0067287E-3,4.1498934E-4,1.9685351E-3,-2.1772243E-3,2.690048E-4,-4.3537258E-4,-5.3371633E-3,-2.902553E-3,-1.7352895E-3,1.2240082E-3,-1.03705E-3,-9.330571E-4,1.2222999E-4,3.7688254E-3,6.959248E-4,5.8458664E-4,3.6567342E-3,1.9680988E-3,-1.7617356E-3,2.3805841E-3,4.755282E-3,2.9413593E-3,3.524453E-3,-1.0660815E-3,4.0357E-3,4.748567E-3,5.7813386E-3,2.9577136E-3,7.1447217E-3,1.2340664E-3,-4.7722077E-3,6.1019934E-3,3.524027E-3],"split_indices":[8,8,8,8,7,8,10,10,1,2,7,8,8,2,8,1,1,10,10,10,1,10,10,1,10,10,10,8,7,2,0,0,0,3,2,10,10,3,4,0,1,10,0,0,0,8,7,10,7,1,10,1,8,7,8,7,0,2,1,0,0,0,0,0,0,0,0,0,0,0,0,0,0,0,0,0,0,0,0,0,0,0,0,0,0,0,0,0,0,0,0,0,0,0,0,0,0,0,0,0,0,0,0],"split_type":[0,0,0,0,0,0,0,0,0,0,0,0,0,0,0,0,0,0,0,0,0,0,0,0,0,0,0,0,0,0,0,0,0,0,0,0,0,0,0,0,0,0,0,0,0,0,0,0,0,0,0,0,0,0,0,0,0,0,0,0,0,0,0,0,0,0,0,0,0,0,0,0,0,0,0,0,0,0,0,0,0,0,0,0,0,0,0,0,0,0,0,0,0,0,0,0,0,0,0,0,0,0,0],"sum_hessian":[5.639E3,1.965E3,3.674E3,1.347E3,6.18E2,3.066E3,6.08E2,5.15E2,8.32E2,2.15E2,4.03E2,1.489E3,1.577E3,4.17E2,1.91E2,2.63E2,2.52E2,8.11E2,2.1E1,8.4E1,1.31E2,1.2E1,3.91E2,8.14E2,6.75E2,7.98E2,7.79E2,2.93E2,1.24E2,1.21E2,7E1,2.61E2,2E0,2.49E2,3E0,4.21E2,3.9E2,1E1,1.1E1,2.3E1,6.1E1,1.3E2,1E0,2E0,1E1,3.68E2,2.3E1,7.7E2,4.4E1,2.3E2,4.45E2,3.43E2,4.55E2,4.07E2,3.72E2,1.9E2,1.03E2,3E0,1.21E2,1.2E2,1E0,7.3E1,1.76E2,2E0,1E0,1.69E2,2.52E2,3.59E2,3.1E1,3E0,7E0,6E0,5E0,5.7E1,4E0,1E0,1.29E2,1.52E2,2.16E2,1.5E1,8E0,4.08E2,3.62E2,1.3E1,3.1E1,2.09E2,2.1E1,4.42E2,3E0,3.28E2,1.5E1,2.03E2,2.52E2,4E0,4.03E2,2.82E2,9E1,2E0,1.88E2,2E0,1E0,9.5E1,2.6E1],"tree_param":{"num_deleted":"0","num_feature":"11","num_nodes":"103","size_leaf_vector":"1"}},{"base_weights":[-2.8114426E-3,-4.471834E-1,1.94287E-1,-5.933015E-1,-3.2690427E-1,1.0080237E-1,4.9855846E-1,-6.695613E-1,-5.2726084E-1,-3.8834885E-1,-1.7454818E-1,-1.3742182E-2,1.9678804E-1,4.0987623E-1,8.16393E-1,-6.7509776E-1,-1.3923912E-1,-5.3390694E-1,-2.930644E-1,-4.1054145E-1,-2.410818E-1,6.0862247E-2,-1.9303295E-1,-8.0303006E-2,3.1760562E-2,1.471479E-1,2.4225006E-1,4.785747E-1,3.3470708E-1,7.261986E-1,9.679053E-1,-1.1093721E-2,-9.681188E-3,-2.6250654E-3,2.8663873E-5,-8.23198E-3,-6.833233E-3,-3.4503677E-1,1.251332E-2,-4.5442507E-1,-3.655747E-1,-1.6232991E-1,-3.0687773E-1,-1.2966209E-2,1.0729254E-1,-3.048471E-1,-1.5835012E-1,-8.691588E-2,3.513279E-2,-3.3193792E-3,6.311282E-2,1.14449404E-1,1.793083E-1,2.1219717E-1,2.727269E-1,4.1873905E-1,5.4671186E-1,-1.3071091E-1,3.4183115E-1,1.096625E-2,7.2053075E-4,1.4690659E-2,1.1504673E-3,-5.8830306E-3,-1.0921048E-3,4.6916126E-4,-1.8761157E-4,-7.650913E-3,-6.4206044E-3,-6.1221994E-3,-5.144992E-3,-3.2437819E-3,-1.4786706E-3,-4.3210745E-4,-4.681061E-3,-6.299758E-4,8.864641E-4,8.5410324E-4,2.1347606E-3,3.0726062E-3,-4.754366E-3,-2.608675E-3,1.1687636E-4,-1.4665811E-3,-9.7666714E-5,1.5144296E-3,-7.8021316E-4,-2.7987474E-4,6.409748E-4,5.9269636E-4,1.2882833E-3,1.5376077E-3,3.034602E-3,2.0912734E-3,2.9752634E-3,1.5054401E-3,3.3079516E-3,3.1722127E-3,4.2089596E-3,5.4688603E-3,6.736871E-3,8.648946E-3,7.2807036E-3,1.5277594E-3,-5.9583397E-3,-2.5957418E-3,5.157464E-3],"categories":[],"categories_nodes":[],"categories_segments":[],"categories_sizes":[],"default_left":[0,0,0,0,0,0,0,0,0,0,0,0,0,0,0,0,0,0,0,0,0,0,0,0,0,0,0,0,0,0,0,0,0,0,0,0,0,0,0,0,0,0,0,0,0,0,0,0,0,0,0,0,0,0,0,0,0,0,0,0,0,0,0,0,0,0,0,0,0,0,0,0,0,0,0,0,0,0,0,0,0,0,0,0,0,0,0,0,0,0,0,0,0,0,0,0,0,0,0,0,0,0,0,0,0,0,0],"id":7,"left_children":[1,3,5,7,9,11,13,15,17,19,21,23,25,27,29,31,33,35,37,39,41,43,45,47,49,51,53,55,57,59,61,-1,-1,-1,-1,-1,-1,63,65,67,69,71,73,75,77,79,81,83,85,87,89,91,93,95,97,99,101,103,105,-1,-1,-1,-1,-1,-1,-1,-1,-1,-1,-1,-1,-1,-1,-1,-1,-1,-1,-1,-1,-1,-1,-1,-1,-1,-1,-1,-1,-1,-1,-1,-1,-1,-1,-1,-1,-1,-1,-1,-1,-1,-1,-1,-1,-1,-1,-1,-1],"loss_changes":[4.9827048E2,3.05271E1,1.1205034E2,3.615509E0,8.928566E0,3.316253E1,2.5765884E1,9.688721E-1,5.081558E-1,2.1365051E0,1.221467E0,4.170042E0,3.6676674E0,3.5888748E0,2.0438843E0,2.0796204E-1,2.557575E-2,2.33078E-1,2.2666001E-1,1.0040436E0,4.268875E-1,7.337661E-2,9.5226E-1,4.2977285E-1,8.9987487E-1,8.0708313E-1,7.25235E-1,1.3081131E0,1.2051659E0,3.955307E-1,6.610031E-1,0E0,0E0,0E0,0E0,0E0,0E0,1.2552238E-1,1.7996761E-3,2.161789E-1,1.4640427E-1,1.2993848E-1,6.17671E-2,2.1311529E-2,1.4822975E-2,4.3528414E-1,5.1585484E-1,4.611218E-1,1.8309276E-1,2.74164E-1,2.2877634E-1,3.9160252E-1,2.7239227E-1,3.8324738E-1,1.4359665E-1,1.7354584E-1,3.722E-2,4.123397E-1,4.1473007E-1,0E0,0E0,0E0,0E0,0E0,0E0,0E0,0E0,0E0,0E0,0E0,0E0,0E0,0E0,0E0,0E0,0E0,0E0,0E0,0E0,0E0,0E0,0E0,0E0,0E0,0E0,0E0,0E0,0E0,0E0,0E0,0E0,0E0,0E0,0E0,0E0,0E0,0E0,0E0,0E0,0E0,0E0,0E0,0E0,0E0,0E0,0E0,0E0],"parents":[2147483647,0,0,1,1,2,2,3,3,4,4,5,5,6,6,7,7,8,8,9,9,10,10,11,11,12,12,13,13,14,14,15,15,16,16,17,17,18,18,19,19,20,20,21,21,22,22,23,23,24,24,25,25,26,26,27,27,28,28,29,29,30,30,37,37,38,38,39,39,40,40,41,41,42,42,43,43,44,44,45,45,46,46,47,47,48,48,49,49,50,50,51,51,52,52,53,53,54,54,55,55,56,56,57,57,58,58],"right_children":[2,4,6,8,10,12,14,16,18,20,22,24,26,28,30,32,34,36,38,40,42,44,46,48,50,52,54,56,58,60,62,-1,-1,-1,-1,-1,-1,64,66,68,70,72,74,76,78,80,82,84,86,88,90,92,94,96,98,100,102,104,106,-1,-1,-1,-1,-1,-1,-1,-1,-1,-1,-1,-1,-1,-1,-1,-1,-1,-1,-1,-1,-1,-1,-1,-1,-1,-1,-1,-1,-1,-1,-1,-1,-1,-1,-1,-1,-1,-1,-1,-1,-1,-1,-1,-1,-1,-1,-1,-1],"split_conditions":[1.145E3,8E2,1.975E3,7E2,2.02778E2,1.52E3,2.95E3,2.02778E2,2.02778E2,1.02E3,2.898077E2,1.32E3,1.715E3,1E0,3.6E3,6.2E2,8E0,8.25E2,1.0266666E3,8.7E2,2E0,8.65E2,9.466667E2,1.505E3,1.41E3,1.65E3,1.8125E3,2.3583333E3,1.99544E2,1E0,1E0,-1.1093721E-2,-9.681188E-3,-2.6250654E-3,2.8663873E-5,-8.23198E-3,-6.833233E-3,1.1E1,6E0,7.75E2,1E0,5E0,6E2,4E0,1E0,8.05E2,1.425E3,1.2E1,6E0,1.4418182E3,1.45E3,1.2E1,1.65E3,1.385E3,1.7933334E3,2.2E3,5E0,5E0,8.05E2,1.096625E-2,7.2053075E-4,1.4690659E-2,1.1504673E-3,-5.8830306E-3,-1.0921048E-3,4.6916126E-4,-1.8761157E-4,-7.650913E-3,-6.4206044E-3,-6.1221994E-3,-5.144992E-3,-3.2437819E-3,-1.4786706E-3,-4.3210745E-4,-4.681061E-3,-6.299758E-4,8.864641E-4,8.5410324E-4,2.1347606E-3,3.0726062E-3,-4.754366E-3,-2.608675E-3,1.1687636E-4,-1.4665811E-3,-9.7666714E-5,1.5144296E-3,-7.8021316E-4,-2.7987474E-4,6.409748E-4,5.9269636E-4,1.2882833E-3,1.5376077E-3,3.034602E-3,2.0912734E-3,2.9752634E-3,1.5054401E-3,3.3079516E-3,3.1722127E-3,4.2089596E-3,5.4688603E-3,6.736871E-3,8.648946E-3,7.2807036E-3,1.5277594E-3,-5.9583397E-3,-2.5957418E-3,5.157464E-3],"split_indices":[8,8,8,8,7,8,9,7,7,8,7,8,8,2,8,9,3,9,9,9,2,8,8,9,9,9,9,8,7,2,2,0,0,0,0,0,0,0,0,9,4,0,9,2,5,8,9,0,3,8,8,0,8,9,8,9,3,2,9,0,0,0,0,0,0,0,0,0,0,0,0,0,0,0,0,0,0,0,0,0,0,0,0,0,0,0,0,0,0,0,0,0,0,0,0,0,0,0,0,0,0,0,0,0,0,0,0],"split_type":[0,0,0,0,0,0,0,0,0,0,0,0,0,0,0,0,0,0,0,0,0,0,0,0,0,0,0,0,0,0,0,0,0,0,0,0,0,0,0,0,0,0,0,0,0,0,0,0,0,0,0,0,0,0,0,0,0,0,0,0,0,0,0,0,0,0,0,0,0,0,0,0,0,0,0,0,0,0,0,0,0,0,0,0,0,0,0,0,0,0,0,0,0,0,0,0,0,0,0,0,0,0,0,0,0,0,0],"sum_hessian":[5.687E3,1.747E3,3.94E3,7.87E2,9.6E2,3.015E3,9.25E2,3.61E2,4.26E2,6.83E2,2.77E2,1.375E3,1.64E3,7.25E2,2E2,3.57E2,4E0,4.13E2,1.3E1,5.92E2,9.1E1,2E1,2.57E2,5.58E2,8.17E2,7.86E2,8.54E2,3.76E2,3.49E2,1.29E2,7.1E1,1.05E2,2.52E2,3E0,1E0,3.42E2,7.1E1,1.1E1,2E0,2.95E2,2.97E2,4.3E1,4.8E1,8E0,1.2E1,5.9E1,1.98E2,5.28E2,3E1,3.86E2,4.31E2,3.92E2,3.94E2,4.34E2,4.2E2,2.04E2,1.72E2,5E0,3.44E2,1.28E2,1E0,7E1,1E0,9E0,2E0,1E0,1E0,8.9E1,2.06E2,9.7E1,2E2,2.2E1,2.1E1,1E0,4.7E1,6E0,2E0,6E0,6E0,1E0,5.8E1,1.81E2,1.7E1,4.65E2,6.3E1,1.7E1,1.3E1,2.9E2,9.6E1,2.13E2,2.18E2,3.47E2,4.5E1,1.3E2,2.64E2,3.1E1,4.03E2,5.1E1,3.69E2,7.8E1,1.26E2,1.1E2,6.2E1,3E0,2E0,1E0,3.43E2],"tree_param":{"num_deleted":"0","num_feature":"11","num_nodes":"107","size_leaf_vector":"1"}},{"base_weights":[-4.0073916E-3,-4.3446803E-1,1.9271548E-1,-5.850987E-1,-3.171442E-1,1.00342214E-1,4.8313564E-1,-6.829934E-1,-5.246271E-1,-3.8030854E-1,-1.7196536E-1,-1.4423697E-2,1.9430198E-1,4.0795332E-1,8.1515026E-1,-1.0317871E-2,-2.3932832E-3,-5.314214E-1,1.4274597E-2,-4.029588E-1,-2.2130112E-1,4.7988642E-2,-1.8923382E-1,-8.2176805E-2,3.0115345E-2,1.4572081E-1,2.405391E-1,4.775338E-1,3.2476062E-1,1.1359016E-2,1.45678E-2,-8.489972E-3,-4.9417594E-1,-3.7887413E-2,2.45435E-3,-4.3894568E-1,-3.6809182E-1,-1.6565466E-1,-4.596679E-3,-2.3358107E-2,1.15336336E-1,-2.9041505E-1,-1.5893912E-1,-8.994142E-2,3.6782626E-2,-3.8246188E-4,6.813189E-2,1.2060811E-1,1.6611099E-1,2.1462718E-1,2.629598E-1,4.0944403E-1,5.5152464E-1,-1.9455262E-1,3.3128878E-1,-7.453922E-3,-3.1340895E-3,-4.6520232E-5,-8.1757666E-4,-6.5985E-3,-1.1949491E-3,-5.808415E-3,-4.9859774E-3,-2.6623886E-3,4.8917055E-4,-7.1227667E-4,2.9875085E-4,1.9271694E-3,4.962826E-4,3.0495608E-3,-4.522184E-3,-2.648541E-3,-1.4319721E-3,-1.5099029E-3,-5.328329E-4,2.691749E-3,-2.4073361E-4,-1.2621662E-4,2.3219725E-3,9.1742066E-4,2.8337177E-3,-7.6925993E-4,1.8700798E-3,2.10508E-3,2.9312458E-3,3.0124225E-3,3.6011483E-3,3.4159236E-3,4.2582485E-3,2.0223982E-3,6.189289E-3,7.739791E-3,9.325751E-3,1.0349393E-3,-5.8987546E-3,5.261196E-3,3.8555395E-3],"categories":[],"categories_nodes":[],"categories_segments":[],"categories_sizes":[],"default_left":[0,0,0,0,0,0,0,0,0,0,0,0,0,0,0,0,0,0,0,0,0,0,0,0,0,0,0,0,0,0,0,0,0,0,0,0,0,0,0,0,0,0,0,0,0,0,0,0,0,0,0,0,0,0,0,0,0,0,0,0,0,0,0,0,0,0,0,0,0,0,0,0,0,0,0,0,0,0,0,0,0,0,0,0,0,0,0,0,0,0,0,0,0,0,0,0,0],"id":8,"left_children":[1,3,5,7,9,11,13,15,17,19,21,23,25,27,29,-1,-1,31,33,35,37,39,41,43,45,47,49,51,53,-1,-1,-1,55,57,-1,59,61,63,-1,65,67,69,71,73,75,77,79,81,83,85,87,89,91,93,95,-1,-1,-1,-1,-1,-1,-1,-1,-1,-1,-1,-1,-1,-1,-1,-1,-1,-1,-1,-1,-1,-1,-1,-1,-1,-1,-1,-1,-1,-1,-1,-1,-1,-1,-1,-1,-1,-1,-1,-1,-1,-1],"loss_changes":[4.792114E2,3.1183258E1,1.0414783E2,4.235504E0,9.104729E0,3.1792204E1,2.3056503E1,6.3635254E-1,1.7797241E0,2.417511E0,1.167553E0,4.009925E0,3.6061249E0,4.2789764E0,8.1801605E-1,0E0,0E0,3.3587646E-1,6.073158E-2,6.0131836E-1,3.7091494E-1,1.1320995E-1,8.2130814E-1,4.900844E-1,9.298818E-1,3.8602448E-1,4.2518234E-1,1.8649597E0,1.2577934E0,0E0,0E0,0E0,8.300781E-2,3.2993462E-3,0E0,6.575775E-2,8.6437225E-2,1.3722348E-1,0E0,1.3474854E-2,8.720145E-3,4.1088772E-1,2.2933912E-1,2.8516197E-1,2.5161195E-1,5.572003E-1,2.890098E-1,2.571721E-1,3.0111694E-1,8.874512E-2,2.5970268E-1,1.3619995E-1,1.6813278E-1,2.8896514E-1,4.12632E-1,0E0,0E0,0E0,0E0,0E0,0E0,0E0,0E0,0E0,0E0,0E0,0E0,0E0,0E0,0E0,0E0,0E0,0E0,0E0,0E0,0E0,0E0,0E0,0E0,0E0,0E0,0E0,0E0,0E0,0E0,0E0,0E0,0E0,0E0,0E0,0E0,0E0,0E0,0E0,0E0,0E0,0E0],"parents":[2147483647,0,0,1,1,2,2,3,3,4,4,5,5,6,6,7,7,8,8,9,9,10,10,11,11,12,12,13,13,14,14,17,17,18,18,19,19,20,20,21,21,22,22,23,23,24,24,25,25,26,26,27,27,28,28,32,32,33,33,35,35,36,36,37,37,39,39,40,40,41,41,42,42,43,43,44,44,45,45,46,46,47,47,48,48,49,49,50,50,51,51,52,52,53,53,54,54],"right_children":[2,4,6,8,10,12,14,16,18,20,22,24,26,28,30,-1,-1,32,34,36,38,40,42,44,46,48,50,52,54,-1,-1,-1,56,58,-1,60,62,64,-1,66,68,70,72,74,76,78,80,82,84,86,88,90,92,94,96,-1,-1,-1,-1,-1,-1,-1,-1,-1,-1,-1,-1,-1,-1,-1,-1,-1,-1,-1,-1,-1,-1,-1,-1,-1,-1,-1,-1,-1,-1,-1,-1,-1,-1,-1,-1,-1,-1,-1,-1,-1,-1],"split_conditions":[1.16E3,8E2,1.9666666E3,6.75E2,2.02778E2,1.52E3,3.05E3,5.1E1,5.1E1,1.02E3,2.898077E2,1.305E3,1.715E3,1E0,3.95E3,-1.0317871E-2,-2.3932832E-3,7.45E2,6E0,1E0,4E0,8.65E2,9.6E2,5.1E1,1.43E3,1.6125E3,1.8333334E3,2.3583333E3,1.99544E2,1.1359016E-2,1.45678E-2,-8.489972E-3,3.095676E2,1E0,2.45435E-3,5.1E1,9.2E2,4.9E1,-4.596679E-3,8.35E2,5.2E1,8.05E2,4E0,3.240872E2,2.898077E2,5.1E1,5.1E1,1.99544E2,1E0,3E1,1E0,1.936376E2,2.7E3,5E0,3.4E1,-7.453922E-3,-3.1340895E-3,-4.6520232E-5,-8.1757666E-4,-6.5985E-3,-1.1949491E-3,-5.808415E-3,-4.9859774E-3,-2.6623886E-3,4.8917055E-4,-7.1227667E-4,2.9875085E-4,1.9271694E-3,4.962826E-4,3.0495608E-3,-4.522184E-3,-2.648541E-3,-1.4319721E-3,-1.5099029E-3,-5.328329E-4,2.691749E-3,-2.4073361E-4,-1.2621662E-4,2.3219725E-3,9.1742066E-4,2.8337177E-3,-7.6925993E-4,1.8700798E-3,2.10508E-3,2.9312458E-3,3.0124225E-3,3.6011483E-3,3.4159236E-3,4.2582485E-3,2.0223982E-3,6.189289E-3,7.739791E-3,9.325751E-3,1.0349393E-3,-5.8987546E-3,5.261196E-3,3.8555395E-3],"split_indices":[8,8,8,8,7,8,8,1,1,8,7,8,8,2,8,0,0,8,2,4,2,8,8,1,8,8,8,8,7,0,0,0,7,6,0,1,8,1,0,8,1,8,2,7,7,1,1,7,4,1,4,7,8,2,1,0,0,0,0,0,0,0,0,0,0,0,0,0,0,0,0,0,0,0,0,0,0,0,0,0,0,0,0,0,0,0,0,0,0,0,0,0,0,0,0,0,0],"split_type":[0,0,0,0,0,0,0,0,0,0,0,0,0,0,0,0,0,0,0,0,0,0,0,0,0,0,0,0,0,0,0,0,0,0,0,0,0,0,0,0,0,0,0,0,0,0,0,0,0,0,0,0,0,0,0,0,0,0,0,0,0,0,0,0,0,0,0,0,0,0,0,0,0,0,0,0,0,0,0,0,0,0,0,0,0,0,0,0,0,0,0,0,0,0,0,0,0],"sum_hessian":[5.657E3,1.774E3,3.883E3,7.75E2,9.99E2,2.947E3,9.36E2,2.92E2,4.83E2,6.95E2,3.04E2,1.327E3,1.62E3,7.65E2,1.71E2,2.89E2,3E0,4.77E2,6E0,6.07E2,8.8E1,2.2E1,2.82E2,5.26E2,8.01E2,7.92E2,8.28E2,4.14E2,3.51E2,1.29E2,4.2E1,2.4E2,2.37E2,5E0,1E0,2.93E2,3.14E2,5.5E1,3.3E1,1.1E1,1.1E1,6.3E1,2.19E2,4.94E2,3.2E1,4.45E2,3.56E2,3.58E2,4.34E2,3.89E2,4.39E2,2.19E2,1.95E2,4E0,3.47E2,2.34E2,3E0,2E0,3E0,2.92E2,1E0,1.98E2,1.16E2,5.2E1,3E0,7E0,4E0,9E0,2E0,1E0,6.2E1,1.7E2,4.9E1,4.12E2,8.2E1,8E0,2.4E1,4.24E2,2.1E1,3.38E2,1.8E1,8E0,3.5E2,2.34E2,2E2,2.58E2,1.31E2,1.68E2,2.71E2,3E0,2.16E2,1.35E2,6E1,2E0,2E0,2.72E2,7.5E1],"tree_param":{"num_deleted":"0","num_feature":"11","num_nodes":"97","size_leaf_vector":"1"}},{"base_weights":[-4.0569287E-3,-3.936257E-1,2.0640947E-1,-5.1403785E-1,-2.0879784E-1,1.1618037E-1,4.7855714E-1,-6.422001E-1,-4.4468352E-1,-3.0178925E-1,-1.3396646E-1,7.0825713E-3,1.9152944E-1,4.0157756E-1,8.084364E-1,-1.0496296E-2,-5.8997816E-1,-4.542282E-1,-1.6450908E-2,-1.6834252E-1,-3.528932E-1,1.6468947E-1,-1.4357981E-1,-3.1509865E-2,6.330901E-2,1.4238816E-1,2.3660581E-1,4.6858767E-1,3.2069105E-1,7.2553843E-1,1.3986924E-2,-8.942218E-3,-1.00069046E-1,-5.0814766E-1,-3.9911655E-1,-4.5873363E-2,3.6337715E-2,-2.1666506E-1,-8.968367E-2,-3.762269E-1,-4.721178E-3,7.38194E-4,2.6975172E-3,-1.6262917E-1,-4.738396E-2,-3.847701E-2,9.519712E-2,3.759856E-2,8.988461E-2,1.0071402E-1,1.6557062E-1,2.0815286E-1,2.651734E-1,4.003433E-1,5.441406E-1,-4.8351167E-3,3.2547796E-1,1.1114965E-2,3.4180817E-1,-2.0205807E-3,2.8799772E-5,-8.058719E-3,-7.067997E-3,-6.1621405E-3,-4.0154736E-3,-1.0726138E-3,-1.2481809E-4,-8.039367E-4,9.0388895E-4,-4.173488E-3,-2.6456877E-3,-1.793789E-3,6.170377E-4,-5.690806E-3,-1.4237475E-3,-3.3353253E-3,-1.9536212E-3,9.296417E-4,-1.3722822E-3,-4.009337E-3,-4.9859664E-4,3.3510718E-3,6.333757E-4,4.4112047E-4,2.4630944E-3,9.1170147E-4,1.7690418E-3,1.2900047E-3,4.862255E-3,2.002628E-3,2.7727964E-3,1.5436016E-3,3.216396E-3,3.6312158E-3,4.313138E-3,4.7370605E-3,6.380631E-3,7.5734546E-3,9.025475E-3,-1.5648812E-3,4.9449503E-3,6.847395E-3,1.1243843E-3],"categories":[],"categories_nodes":[],"categories_segments":[],"categories_sizes":[],"default_left":[0,0,0,0,0,0,0,0,0,0,0,0,0,0,0,0,0,0,0,0,0,0,0,0,0,0,0,0,0,0,0,0,0,0,0,0,0,0,0,0,0,0,0,0,0,0,0,0,0,0,0,0,0,0,0,0,0,0,0,0,0,0,0,0,0,0,0,0,0,0,0,0,0,0,0,0,0,0,0,0,0,0,0,0,0,0,0,0,0,0,0,0,0,0,0,0,0,0,0,0,0,0,0],"id":9,"left_children":[1,3,5,7,9,11,13,15,17,19,21,23,25,27,29,-1,31,33,35,37,39,41,43,45,47,49,51,53,55,57,-1,-1,59,61,63,65,67,69,71,73,-1,-1,-1,75,77,79,81,83,85,87,89,91,93,95,97,-1,99,-1,101,-1,-1,-1,-1,-1,-1,-1,-1,-1,-1,-1,-1,-1,-1,-1,-1,-1,-1,-1,-1,-1,-1,-1,-1,-1,-1,-1,-1,-1,-1,-1,-1,-1,-1,-1,-1,-1,-1,-1,-1,-1,-1,-1,-1],"loss_changes":[4.6119943E2,4.3802795E1,8.962158E1,1.0327423E1,5.3873367E0,2.255547E1,2.2758453E1,8.404846E-1,3.1724854E0,2.3070145E0,1.2696958E0,2.4366395E0,3.5614357E0,3.8552704E0,1.0815887E0,0E0,6.2041473E-1,2.0585632E0,2.9624011E-2,3.530662E-1,1.0411835E-1,1.5634328E-2,7.637644E-1,5.915982E-1,3.0887508E-1,7.3592186E-1,6.31649E-1,1.8548965E0,1.1453247E0,3.814621E-1,0E0,0E0,1.438874E-2,1.5650177E-1,4.7549057E-1,1.0956414E-2,1.8289082E-2,9.9743605E-2,1.5747947E-1,9.733772E-2,0E0,0E0,0E0,6.5000916E-1,3.4809905E-1,7.4846786E-1,2.2826666E-1,2.3782533E-1,1.7571115E-1,8.959317E-1,2.838211E-1,2.6053047E-1,1.463108E-1,3.2064438E-1,1.2085724E-1,0E0,6.3882065E-1,0E0,1.4940321E-1,0E0,0E0,0E0,0E0,0E0,0E0,0E0,0E0,0E0,0E0,0E0,0E0,0E0,0E0,0E0,0E0,0E0,0E0,0E0,0E0,0E0,0E0,0E0,0E0,0E0,0E0,0E0,0E0,0E0,0E0,0E0,0E0,0E0,0E0,0E0,0E0,0E0,0E0,0E0,0E0,0E0,0E0,0E0,0E0],"parents":[2147483647,0,0,1,1,2,2,3,3,4,4,5,5,6,6,7,7,8,8,9,9,10,10,11,11,12,12,13,13,14,14,16,16,17,17,18,18,19,19,20,20,21,21,22,22,23,23,24,24,25,25,26,26,27,27,28,28,29,29,32,32,33,33,34,34,35,35,36,36,37,37,38,38,39,39,43,43,44,44,45,45,46,46,47,47,48,48,49,49,50,50,51,51,52,52,53,53,54,54,56,56,58,58],"right_children":[2,4,6,8,10,12,14,16,18,20,22,24,26,28,30,-1,32,34,36,38,40,42,44,46,48,50,52,54,56,58,-1,-1,60,62,64,66,68,70,72,74,-1,-1,-1,76,78,80,82,84,86,88,90,92,94,96,98,-1,100,-1,102,-1,-1,-1,-1,-1,-1,-1,-1,-1,-1,-1,-1,-1,-1,-1,-1,-1,-1,-1,-1,-1,-1,-1,-1,-1,-1,-1,-1,-1,-1,-1,-1,-1,-1,-1,-1,-1,-1,-1,-1,-1,-1,-1,-1],"split_conditions":[1.224E3,9E2,1.975E3,7.15E2,2.02778E2,1.52E3,3.05E3,6.5E2,5.1E1,1E0,2.898077E2,1.42E3,1.735E3,1E0,3.6E3,-1.0496296E-2,5.1E1,8.1E2,8.25E2,1.145E3,6E0,1E0,1.34E3,5.1E1,1.4633334E3,1.58E3,1.8125E3,2.3583333E3,8.05E2,1E0,1.3986924E-2,-8.942218E-3,8E0,7.65E2,1.0266666E3,8.15E2,2E0,9.85E2,1.305E3,5.1E1,-4.721178E-3,7.38194E-4,2.6975172E-3,1.1E3,1E0,9.466667E2,2.898077E2,5.2E1,2.5E1,5.2E1,1.65E3,1.385E3,1.8625E3,2.0833333E3,2.7E3,-4.8351167E-3,1.994965E2,1.1114965E-2,3.4E1,-2.0205807E-3,2.8799772E-5,-8.058719E-3,-7.067997E-3,-6.1621405E-3,-4.0154736E-3,-1.0726138E-3,-1.2481809E-4,-8.039367E-4,9.0388895E-4,-4.173488E-3,-2.6456877E-3,-1.793789E-3,6.170377E-4,-5.690806E-3,-1.4237475E-3,-3.3353253E-3,-1.9536212E-3,9.296417E-4,-1.3722822E-3,-4.009337E-3,-4.9859664E-4,3.3510718E-3,6.333757E-4,4.4112047E-4,2.4630944E-3,9.1170147E-4,1.7690418E-3,1.2900047E-3,4.862255E-3,2.002628E-3,2.7727964E-3,1.5436016E-3,3.216396E-3,3.6312158E-3,4.313138E-3,4.7370605E-3,6.380631E-3,7.5734546E-3,9.025475E-3,-1.5648812E-3,4.9449503E-3,6.847395E-3,1.1243843E-3],"split_indices":[8,8,8,9,7,8,8,8,1,2,7,8,8,2,9,0,1,9,8,9,2,3,9,1,9,9,9,8,9,2,0,0,3,8,9,9,2,9,9,1,0,0,0,8,5,9,7,1,1,1,8,9,8,9,8,0,7,0,1,0,0,0,0,0,0,0,0,0,0,0,0,0,0,0,0,0,0,0,0,0,0,0,0,0,0,0,0,0,0,0,0,0,0,0,0,0,0,0,0,0,0,0,0],"split_type":[0,0,0,0,0,0,0,0,0,0,0,0,0,0,0,0,0,0,0,0,0,0,0,0,0,0,0,0,0,0,0,0,0,0,0,0,0,0,0,0,0,0,0,0,0,0,0,0,0,0,0,0,0,0,0,0,0,0,0,0,0,0,0,0,0,0,0,0,0,0,0,0,0,0,0,0,0,0,0,0,0,0,0,0,0,0,0,0,0,0,0,0,0,0,0,0,0,0,0,0,0,0,0],"sum_hessian":[5.623E3,1.972E3,3.651E3,1.193E3,7.79E2,2.743E3,9.08E2,4.16E2,7.77E2,3.46E2,4.33E2,1.121E3,1.622E3,7.38E2,1.7E2,1.92E2,2.24E2,7.6E2,1.7E1,9.7E1,2.49E2,1.3E1,4.2E2,6.65E2,4.56E2,7.78E2,8.44E2,4.01E2,3.37E2,1.06E2,6.4E1,2.21E2,3E0,3.8E2,3.8E2,1.1E1,6E0,5.9E1,3.8E1,1.49E2,1E2,2E0,1.1E1,3.5E2,7E1,6.31E2,3.4E1,2.33E2,2.23E2,2.8E2,4.98E2,4.27E2,4.17E2,2.14E2,1.87E2,2E0,3.35E2,1.01E2,5E0,2E0,1E0,2.05E2,1.75E2,3.47E2,3.3E1,6E0,5E0,1E0,5E0,2.1E1,3.8E1,3.1E1,7E0,1.47E2,2E0,1.21E2,2.29E2,2E1,5E1,1.3E1,6.18E2,9E0,2.5E1,2.2E2,1.3E1,1.11E2,1.12E2,2.64E2,1.6E1,1.9E2,3.08E2,2.5E1,4.02E2,2.11E2,2.06E2,5.2E1,1.62E2,1.17E2,7E1,3E0,3.32E2,3E0,2E0],"tree_param":{"num_deleted":"0","num_feature":"11","num_nodes":"103","size_leaf_vector":"1"}},{"base_weights":[-1.2309004E-3,-3.8040927E-1,1.9734776E-1,-4.6501568E-1,-1.1482492E-1,1.20101705E-1,5.0847197E-1,-5.8336836E-1,-3.7573463E-1,1.587192E-1,-1.4915192E-1,4.77818E-3,1.9506255E-1,4.02778E-1,7.850409E-1,-9.965127E-3,-5.331024E-1,-4.1864932E-1,-2.728496E-1,-5.6134067E-3,2.8489465E-1,-2.2833823E-1,-1.0685678E-1,-3.7020605E-2,6.311612E-2,1.1944678E-1,2.2438961E-1,4.6558034E-1,3.0071256E-1,7.1213055E-1,1.3658439E-2,-4.720985E-1,-5.558731E-1,-6.6819275E-3,-5.552069E-3,-1.4529216E-1,-3.327723E-1,-1.04050495E-1,6.0385544E-2,1.3433902E-1,3.096322E-1,-3.0839282E-1,-1.8162358E-1,-1.2789369E-1,-5.992765E-2,-4.709956E-2,2.3054466E-1,3.728388E-2,9.68146E-2,1.07844286E-1,3.3836484E-1,1.9880134E-1,2.7282548E-1,4.145337E-1,5.117577E-1,-5.8137416E-3,3.0931827E-1,1.074199E-2,1.378845E-3,-1.3099873E-3,-7.225662E-3,-8.792342E-3,-7.7228933E-3,-2.747016E-3,-6.0384284E-4,-6.224073E-3,-4.649277E-3,-1.7457604E-3,5.213499E-5,1.2415552E-3,-3.2797872E-4,2.5374966E-3,6.4684154E-4,5.4968167E-3,3.4348813E-3,-4.854164E-3,-2.0667803E-3,6.440463E-4,-2.8812164E-3,-2.3875874E-3,-1.4769575E-3,-2.2643395E-3,-5.349639E-4,-3.0903427E-3,-5.060298E-4,7.544742E-4,4.2722593E-3,4.4245314E-4,2.1343562E-3,5.7820074E-4,1.8096253E-3,-1.7639432E-3,1.7151586E-3,6.329577E-3,3.8174312E-3,-3.7868368E-4,3.0223355E-3,3.620808E-3,4.5234337E-3,3.2676482E-3,6.291153E-3,4.5420884E-4,7.7166506E-3,5.1840656E-3,3.4413217E-3],"categories":[],"categories_nodes":[],"categories_segments":[],"categories_sizes":[],"default_left":[0,0,0,0,0,0,0,0,0,0,0,0,0,0,0,0,0,0,0,0,0,0,0,0,0,0,0,0,0,0,0,0,0,0,0,0,0,0,0,0,0,0,0,0,0,0,0,0,0,0,0,0,0,0,0,0,0,0,0,0,0,0,0,0,0,0,0,0,0,0,0,0,0,0,0,0,0,0,0,0,0,0,0,0,0,0,0,0,0,0,0,0,0,0,0,0,0,0,0,0,0,0,0,0,0],"id":10,"left_children":[1,3,5,7,9,11,13,15,17,19,21,23,25,27,29,-1,31,33,35,37,39,41,43,45,47,49,51,53,55,57,-1,59,61,-1,-1,63,65,67,69,71,73,75,77,79,81,83,85,87,89,91,93,95,97,99,101,-1,103,-1,-1,-1,-1,-1,-1,-1,-1,-1,-1,-1,-1,-1,-1,-1,-1,-1,-1,-1,-1,-1,-1,-1,-1,-1,-1,-1,-1,-1,-1,-1,-1,-1,-1,-1,-1,-1,-1,-1,-1,-1,-1,-1,-1,-1,-1,-1,-1],"loss_changes":[4.2587808E2,4.362854E1,8.914986E1,1.5356079E1,4.4463396E0,2.5717194E1,2.1256775E1,2.218216E0,3.6078491E0,1.1005405E0,1.3789139E0,2.8626442E0,3.9715042E0,3.2957306E0,1.2093887E0,0E0,2.862625E-1,6.064453E-1,1.8701935E0,1.6220503E-1,7.013559E-2,4.8624802E-1,2.638278E-1,1.8554552E0,4.2293906E-1,1.2487459E0,1.5544968E0,5.657425E-1,1.3460045E0,2.642975E-1,0E0,3.7955856E-1,4.8461914E-2,0E0,0E0,3.1856108E-1,1.901493E-1,1.3666287E-2,2.9427312E-2,1.1766046E-2,3.0638933E-2,9.0420246E-2,2.2899127E-1,1.5830779E-1,1.867693E-1,1.3948168E0,2.3023522E-1,2.2393736E-1,2.8968072E-1,7.1971035E-1,6.791186E-2,5.18734E-1,3.3013916E-1,6.402016E-2,2.0295715E-1,0E0,5.150356E-1,0E0,0E0,0E0,0E0,0E0,0E0,0E0,0E0,0E0,0E0,0E0,0E0,0E0,0E0,0E0,0E0,0E0,0E0,0E0,0E0,0E0,0E0,0E0,0E0,0E0,0E0,0E0,0E0,0E0,0E0,0E0,0E0,0E0,0E0,0E0,0E0,0E0,0E0,0E0,0E0,0E0,0E0,0E0,0E0,0E0,0E0,0E0,0E0],"parents":[2147483647,0,0,1,1,2,2,3,3,4,4,5,5,6,6,7,7,8,8,9,9,10,10,11,11,12,12,13,13,14,14,16,16,17,17,18,18,19,19,20,20,21,21,22,22,23,23,24,24,25,25,26,26,27,27,28,28,29,29,31,31,32,32,35,35,36,36,37,37,38,38,39,39,40,40,41,41,42,42,43,43,44,44,45,45,46,46,47,47,48,48,49,49,50,50,51,51,52,52,53,53,54,54,56,56],"right_children":[2,4,6,8,10,12,14,16,18,20,22,24,26,28,30,-1,32,34,36,38,40,42,44,46,48,50,52,54,56,58,-1,60,62,-1,-1,64,66,68,70,72,74,76,78,80,82,84,86,88,90,92,94,96,98,100,102,-1,104,-1,-1,-1,-1,-1,-1,-1,-1,-1,-1,-1,-1,-1,-1,-1,-1,-1,-1,-1,-1,-1,-1,-1,-1,-1,-1,-1,-1,-1,-1,-1,-1,-1,-1,-1,-1,-1,-1,-1,-1,-1,-1,-1,-1,-1,-1,-1,-1],"split_conditions":[1.2033334E3,2.02778E2,2.0833333E3,7.65E2,2.898077E2,1.525E3,2.9333333E3,6.7E2,9.4E2,7.833333E2,1.1E3,1.4066666E3,1.65E3,1E0,3.6E3,-9.965127E-3,3E0,8.7E2,1E0,6.75E2,8.15E2,9.5E2,1.3E3,3.649107E2,1.46E3,3.656768E2,1.8625E3,2.4E3,1.365E3,1E0,1.3658439E-2,6.75E2,7.15E2,-6.6819275E-3,-5.552069E-3,1.2033334E3,8.55E2,7.35E2,8E0,8.25E2,1E0,3.269876E2,8.15E2,7E0,2E0,1.07E3,1E0,1.2E1,1.49E3,1.994965E2,3.679773E2,1.994965E2,1.91E3,2.903935E2,1.890696E2,-5.8137416E-3,7E0,1.074199E-2,1.378845E-3,-1.3099873E-3,-7.225662E-3,-8.792342E-3,-7.7228933E-3,-2.747016E-3,-6.0384284E-4,-6.224073E-3,-4.649277E-3,-1.7457604E-3,5.213499E-5,1.2415552E-3,-3.2797872E-4,2.5374966E-3,6.4684154E-4,5.4968167E-3,3.4348813E-3,-4.854164E-3,-2.0667803E-3,6.440463E-4,-2.8812164E-3,-2.3875874E-3,-1.4769575E-3,-2.2643395E-3,-5.349639E-4,-3.0903427E-3,-5.060298E-4,7.544742E-4,4.2722593E-3,4.4245314E-4,2.1343562E-3,5.7820074E-4,1.8096253E-3,-1.7639432E-3,1.7151586E-3,6.329577E-3,3.8174312E-3,-3.7868368E-4,3.0223355E-3,3.620808E-3,4.5234337E-3,3.2676482E-3,6.291153E-3,4.5420884E-4,7.7166506E-3,5.1840656E-3,3.4413217E-3],"split_indices":[9,7,9,9,7,9,10,10,9,10,10,10,10,2,10,0,3,10,2,10,10,9,10,7,9,7,9,9,10,2,0,10,9,0,0,10,10,9,3,9,6,7,10,0,2,10,3,0,10,7,7,7,10,7,7,0,0,0,0,0,0,0,0,0,0,0,0,0,0,0,0,0,0,0,0,0,0,0,0,0,0,0,0,0,0,0,0,0,0,0,0,0,0,0,0,0,0,0,0,0,0,0,0,0,0],"split_type":[0,0,0,0,0,0,0,0,0,0,0,0,0,0,0,0,0,0,0,0,0,0,0,0,0,0,0,0,0,0,0,0,0,0,0,0,0,0,0,0,0,0,0,0,0,0,0,0,0,0,0,0,0,0,0,0,0,0,0,0,0,0,0,0,0,0,0,0,0,0,0,0,0,0,0,0,0,0,0,0,0,0,0,0,0,0,0,0,0,0,0,0,0,0,0,0,0,0,0,0,0,0,0,0,0],"sum_hessian":[5.654E3,1.943E3,3.711E3,1.473E3,4.7E2,2.974E3,7.37E2,6.31E2,8.42E2,5.2E1,4.18E2,1.172E3,1.802E3,5.35E2,2.02E2,2.37E2,3.94E2,5.92E2,2.5E2,2.3E1,2.9E1,1.44E2,2.74E2,6.83E2,4.89E2,5.05E2,1.297E3,3.29E2,2.06E2,1.32E2,7E1,1.13E2,2.81E2,3.76E2,2.16E2,8.1E1,1.69E2,9E0,1.4E1,5E0,2.4E1,5.1E1,9.3E1,1.88E2,8.6E1,6.59E2,2.4E1,2.78E2,2.11E2,4.81E2,2.4E1,8.52E2,4.45E2,1.61E2,1.68E2,2E0,2.04E2,1.31E2,1E0,3E0,1.1E2,1.54E2,1.27E2,5.9E1,2.2E1,3.3E1,1.36E2,8E0,1E0,1.1E1,3E0,3E0,2E0,1.2E1,1.2E1,4.6E1,5E0,4E0,8.9E1,8.9E1,9.9E1,1.7E1,6.9E1,5E1,6.09E2,6E0,1.8E1,2.6E2,1.8E1,6.2E1,1.49E2,1.3E1,4.68E2,1E1,1.4E1,1E1,8.42E2,2.17E2,2.28E2,5E0,1.56E2,1E0,1.67E2,1.38E2,6.6E1],"tree_param":{"num_deleted":"0","num_feature":"11","num_nodes":"105","size_leaf_vector":"1"}},{"base_weights":[-1.5017552E-4,-4.108102E-1,1.910651E-1,-5.4629767E-1,-2.9213053E-1,9.306394E-2,4.4408756E-1,-6.441788E-1,-4.907017E-1,-3.542371E-1,-1.5649968E-1,-3.1672053E-2,1.6348706E-1,3.6594146E-1,7.7038234E-1,-6.5026975E-1,-2.3213525E-3,-5.0282466E-1,-1.8350726E-1,-3.7469226E-1,-1.7735338E-1,-1.7360972E-1,4.963829E-2,-7.38103E-2,8.005554E-3,9.909803E-2,2.0071599E-1,4.438932E-1,3.010859E-1,-4.5570303E-3,7.770716E-1,-1.0220518E-2,-8.896445E-3,-8.017293E-3,-6.792401E-3,-3.0047104E-1,5.873823E-2,-4.2441717E-1,-3.2964826E-1,-1.2615661E-1,-2.644613E-1,5.7691716E-2,-1.8784651E-1,7.123965E-2,-7.617843E-2,-1.0232858E-1,-5.3238295E-2,-1.8764112E-2,2.9116753E-2,5.239323E-2,1.2238367E-1,1.7449626E-1,2.3385397E-1,3.8871616E-1,7.7785337E-3,-4.0871967E-3,3.0285954E-1,1.0530809E-2,9.013997E-1,5.617082E-5,-5.6525557E-3,-6.341183E-4,3.6177658E-3,-7.127677E-3,-5.959508E-3,-5.403211E-3,-4.448661E-3,-2.6740155E-3,-9.180759E-4,-4.3047178E-3,-5.482435E-5,-4.0743419E-4,1.596675E-3,-4.729542E-3,-2.3489045E-3,1.8959898E-3,-3.1138658E-5,5.810809E-4,-1.9109559E-3,-3.8217213E-3,-1.3966404E-3,-9.281335E-4,7.176257E-4,-4.950404E-4,1.0488521E-3,1.6623535E-4,7.6381845E-4,-2.5243696E-3,9.563628E-4,1.6511236E-3,2.2705216E-3,2.3962476E-3,3.131006E-3,3.21539E-3,3.9434303E-3,5.146151E-3,6.3454416E-3,4.1048727E-3,5.0531635E-3,1.3678202E-2,1.0224008E-3],"categories":[],"categories_nodes":[],"categories_segments":[],"categories_sizes":[],"default_left":[0,0,0,0,0,0,0,0,0,0,0,0,0,0,0,0,0,0,0,0,0,0,0,0,0,0,0,0,0,0,0,0,0,0,0,0,0,0,0,0,0,0,0,0,0,0,0,0,0,0,0,0,0,0,0,0,0,0,0,0,0,0,0,0,0,0,0,0,0,0,0,0,0,0,0,0,0,0,0,0,0,0,0,0,0,0,0,0,0,0,0,0,0,0,0,0,0,0,0,0,0],"id":11,"left_children":[1,3,5,7,9,11,13,15,17,19,21,23,25,27,29,31,-1,33,35,37,39,41,43,45,47,49,51,53,55,-1,57,-1,-1,-1,-1,59,61,63,65,67,69,71,73,75,77,79,81,83,85,87,89,91,93,95,-1,-1,97,-1,99,-1,-1,-1,-1,-1,-1,-1,-1,-1,-1,-1,-1,-1,-1,-1,-1,-1,-1,-1,-1,-1,-1,-1,-1,-1,-1,-1,-1,-1,-1,-1,-1,-1,-1,-1,-1,-1,-1,-1,-1,-1,-1],"loss_changes":[4.4366327E2,2.8703308E1,9.554918E1,4.238693E0,8.0227585E0,2.442552E1,2.7154648E1,7.936783E-1,1.9113007E0,2.3106918E0,1.0773077E0,1.6792238E0,4.2398224E0,4.2647247E0,1.723465E0,1.22169495E-1,0E0,5.763855E-1,6.409961E-1,1.1771011E0,2.7881145E-1,9.328747E-1,7.065444E-2,2.8026438E-1,2.9328877E-1,7.037592E-1,9.366722E-1,1.4177322E0,5.688019E-1,0E0,1.2884979E0,0E0,0E0,0E0,0E0,3.4988737E-1,1.5763114E-1,1.9112015E-1,2.095604E-1,1.4478517E-1,1.457845E-1,7.321878E-2,1.0022373E0,8.5187696E-2,2.8478796E-2,2.615931E-1,2.5178105E-1,2.914855E-1,1.13472536E-1,5.59965E-1,1.3852978E-1,2.857399E-1,2.2332382E-1,2.1505737E-1,0E0,0E0,3.8165283E-1,0E0,5.840759E-1,0E0,0E0,0E0,0E0,0E0,0E0,0E0,0E0,0E0,0E0,0E0,0E0,0E0,0E0,0E0,0E0,0E0,0E0,0E0,0E0,0E0,0E0,0E0,0E0,0E0,0E0,0E0,0E0,0E0,0E0,0E0,0E0,0E0,0E0,0E0,0E0,0E0,0E0,0E0,0E0,0E0,0E0],"parents":[2147483647,0,0,1,1,2,2,3,3,4,4,5,5,6,6,7,7,8,8,9,9,10,10,11,11,12,12,13,13,14,14,15,15,17,17,18,18,19,19,20,20,21,21,22,22,23,23,24,24,25,25,26,26,27,27,28,28,30,30,35,35,36,36,37,37,38,38,39,39,40,40,41,41,42,42,43,43,44,44,45,45,46,46,47,47,48,48,49,49,50,50,51,51,52,52,53,53,56,56,58,58],"right_children":[2,4,6,8,10,12,14,16,18,20,22,24,26,28,30,32,-1,34,36,38,40,42,44,46,48,50,52,54,56,-1,58,-1,-1,-1,-1,60,62,64,66,68,70,72,74,76,78,80,82,84,86,88,90,92,94,96,-1,-1,98,-1,100,-1,-1,-1,-1,-1,-1,-1,-1,-1,-1,-1,-1,-1,-1,-1,-1,-1,-1,-1,-1,-1,-1,-1,-1,-1,-1,-1,-1,-1,-1,-1,-1,-1,-1,-1,-1,-1,-1,-1,-1,-1,-1],"split_conditions":[1.18E3,8.05E2,1.91E3,6.8E2,2.02778E2,1.46E3,2.95E3,2.02778E2,2.02778E2,1.06E3,1.515E3,1.31E3,1.615E3,1E0,1.99544E2,6.6E2,-2.3213525E-3,7.65E2,3E0,8.7E2,2E0,2.898077E2,9E0,7E0,1.38E3,1.49E3,1.7833334E3,2.3583333E3,1.969664E2,-4.5570303E-3,3.6E3,-1.0220518E-2,-8.896445E-3,-8.017293E-3,-6.792401E-3,3.052629E2,7.65E2,7.833333E2,9.2E2,1.145E3,9E0,8.65E2,9.6E2,4E0,1E0,1.005E3,1.46E3,1.2E1,7E0,1.99544E2,1.75E3,1.7625E3,1.865E3,2.175E3,7.7785337E-3,-4.0871967E-3,6E0,1.0530809E-2,1E0,5.617082E-5,-5.6525557E-3,-6.341183E-4,3.6177658E-3,-7.127677E-3,-5.959508E-3,-5.403211E-3,-4.448661E-3,-2.6740155E-3,-9.180759E-4,-4.3047178E-3,-5.482435E-5,-4.0743419E-4,1.596675E-3,-4.729542E-3,-2.3489045E-3,1.8959898E-3,-3.1138658E-5,5.810809E-4,-1.9109559E-3,-3.8217213E-3,-1.3966404E-3,-9.281335E-4,7.176257E-4,-4.950404E-4,1.0488521E-3,1.6623535E-4,7.6381845E-4,-2.5243696E-3,9.563628E-4,1.6511236E-3,2.2705216E-3,2.3962476E-3,3.131006E-3,3.21539E-3,3.9434303E-3,5.146151E-3,6.3454416E-3,4.1048727E-3,5.0531635E-3,1.3678202E-2,1.0224008E-3],"split_indices":[8,8,8,8,7,8,8,7,7,8,10,8,8,2,7,10,0,10,2,10,2,7,0,0,10,10,8,8,7,0,8,0,0,0,0,7,10,10,8,10,3,8,8,3,2,10,10,0,0,7,10,10,10,10,0,0,2,0,2,0,0,0,0,0,0,0,0,0,0,0,0,0,0,0,0,0,0,0,0,0,0,0,0,0,0,0,0,0,0,0,0,0,0,0,0,0,0,0,0,0,0],"split_type":[0,0,0,0,0,0,0,0,0,0,0,0,0,0,0,0,0,0,0,0,0,0,0,0,0,0,0,0,0,0,0,0,0,0,0,0,0,0,0,0,0,0,0,0,0,0,0,0,0,0,0,0,0,0,0,0,0,0,0,0,0,0,0,0,0,0,0,0,0,0,0,0,0,0,0,0,0,0,0,0,0,0,0,0,0,0,0,0,0,0,0,0,0,0,0,0,0,0,0,0,0],"sum_hessian":[5.648E3,1.794E3,3.854E3,8.36E2,9.58E2,2.779E3,1.075E3,2.99E2,5.37E2,6.56E2,3.02E2,1.003E3,1.776E3,8.69E2,2.06E2,2.95E2,4E0,5.16E2,2.1E1,5.87E2,6.9E1,2.79E2,2.3E1,4.86E2,5.17E2,6.52E2,1.124E3,3.92E2,4.77E2,1E0,2.05E2,1.84E2,1.11E2,3.1E2,2.06E2,1.4E1,7E0,2.75E2,3.12E2,4.5E1,2.4E1,1.6E1,2.63E2,2E1,3E0,2.02E2,2.84E2,2.28E2,2.89E2,2.18E2,4.34E2,6.31E2,4.93E2,2.29E2,1.63E2,1E0,4.76E2,1.32E2,7.3E1,3E0,1.1E1,5E0,2E0,9E1,1.85E2,1.57E2,1.55E2,2.4E1,2.1E1,2.2E1,2E0,6E0,1E1,5E1,2.13E2,1.1E1,9E0,1E0,2E0,1E1,1.92E2,2.62E2,2.2E1,1.97E2,3.1E1,1.59E2,1.3E2,1E1,2.08E2,3.08E2,1.26E2,4.45E2,1.86E2,3E2,1.93E2,1.03E2,1.26E2,2.61E2,2.15E2,7.2E1,1E0],"tree_param":{"num_deleted":"0","num_feature":"11","num_nodes":"101","size_leaf_vector":"1"}},{"base_weights":[5.3022555E-3,-3.6776E-1,1.9548945E-1,-4.493618E-1,-1.1220714E-1,1.2008091E-1,5.0039077E-1,-5.500135E-1,-3.3988488E-1,-1.3835406E-1,2.248509E-1,8.92324E-3,1.9030617E-1,4.0302223E-1,7.546176E-1,-6.1956424E-1,-4.9041402E-1,-3.6625224E-1,-1.9171733E-1,-1.8967427E-1,-8.984029E-2,3.0157244E-1,1.0561896E-2,-2.9627861E-2,6.051172E-2,1.3007541E-1,2.240131E-1,3.3631945E-1,4.559304E-1,6.8673134E-1,8.7945354E-1,-6.2193567E-1,-2.1168326E-3,-4.91334E-1,-8.353829E-4,-6.1247647E-3,-3.3159506E-1,-6.473701E-3,-1.682125E-1,1.5205893E-2,-2.2127785E-1,-1.17446534E-1,-4.119533E-2,1.8599693E-1,5.686444E-3,-1.8896792E-2,2.0676756E-3,-3.904386E-2,2.503468E-1,3.4060072E-2,9.240662E-2,1.21175155E-1,3.0905265E-1,1.9664814E-1,2.695893E-1,-5.805855E-2,3.431343E-1,4.0516737E-1,7.724594E-3,2.2280867E-1,6.919154E-1,1.3346241E-2,1.3450205E-3,-9.511206E-3,-7.5604436E-3,-7.7146953E-3,-6.8234745E-3,-5.3537E-3,-4.390031E-3,-1.5571403E-3,-2.9757612E-3,-1.0805496E-3,1.3588911E-3,6.059227E-4,-3.4564203E-3,-1.9010252E-3,-8.229017E-5,-1.3565922E-3,4.8651252E-4,3.9330838E-4,2.9720755E-3,-6.5288274E-4,1.3359976E-3,-2.6976792E-3,-4.6490197E-4,4.1970694E-3,-4.4231652E-4,8.387385E-5,9.761136E-4,1.2966482E-3,4.012184E-3,8.7486615E-4,2.1664936E-3,5.9818425E-3,3.4708169E-3,2.5738487E-3,3.2067136E-3,3.6817824E-3,4.381378E-3,-5.7360455E-3,4.284582E-3,4.980738E-3,7.0351902E-3,4.089086E-3,6.1787614E-3,3.874719E-4,4.625723E-3,2.625439E-3,1.0416715E-2],"categories":[],"categories_nodes":[],"categories_segments":[],"categories_sizes":[],"default_left":[0,0,0,0,0,0,0,0,0,0,0,0,0,0,0,0,0,0,0,0,0,0,0,0,0,0,0,0,0,0,0,0,0,0,0,0,0,0,0,0,0,0,0,0,0,0,0,0,0,0,0,0,0,0,0,0,0,0,0,0,0,0,0,0,0,0,0,0,0,0,0,0,0,0,0,0,0,0,0,0,0,0,0,0,0,0,0,0,0,0,0,0,0,0,0,0,0,0,0,0,0,0,0,0,0,0,0,0,0],"id":12,"left_children":[1,3,5,7,9,11,13,15,17,19,21,23,25,27,29,31,33,35,37,39,41,43,45,47,49,51,53,55,57,59,61,63,-1,65,-1,-1,67,-1,69,71,73,75,77,79,-1,81,-1,83,85,87,89,91,93,95,97,99,101,103,-1,105,107,-1,-1,-1,-1,-1,-1,-1,-1,-1,-1,-1,-1,-1,-1,-1,-1,-1,-1,-1,-1,-1,-1,-1,-1,-1,-1,-1,-1,-1,-1,-1,-1,-1,-1,-1,-1,-1,-1,-1,-1,-1,-1,-1,-1,-1,-1,-1,-1],"loss_changes":[4.0428354E2,4.007187E1,8.671234E1,1.5878784E1,4.146795E0,2.3627296E1,1.8211624E1,2.838211E0,2.6684418E0,1.0635052E0,5.5579484E-1,2.3346467E0,3.7368698E0,1.7629776E0,1.1418228E0,3.0480957E-1,1.3780975E-1,7.305832E-1,5.362992E-1,1.3631034E0,2.9731524E-1,1.5348554E-1,4.010077E-2,1.7813286E0,4.2037642E-1,1.0266371E0,1.4286537E0,6.7570496E-1,6.90506E-1,1.7772675E-1,4.8129272E-1,1.7298889E-1,0E0,1.109848E-1,0E0,0E0,2.217598E-1,0E0,1.737206E-1,1.9725724E-1,4.450798E-1,1.4801645E-1,3.0387658E-1,1.8083692E-2,0E0,2.7807651E-2,0E0,7.323391E-1,1.8960392E-1,2.4332374E-1,2.1387255E-1,9.2418385E-1,1.237762E-1,2.835865E-1,1.6892242E-1,6.666109E-1,1.7915535E-1,3.6247253E-2,0E0,4.260178E-2,5.646515E-2,0E0,0E0,0E0,0E0,0E0,0E0,0E0,0E0,0E0,0E0,0E0,0E0,0E0,0E0,0E0,0E0,0E0,0E0,0E0,0E0,0E0,0E0,0E0,0E0,0E0,0E0,0E0,0E0,0E0,0E0,0E0,0E0,0E0,0E0,0E0,0E0,0E0,0E0,0E0,0E0,0E0,0E0,0E0,0E0,0E0,0E0,0E0,0E0],"parents":[2147483647,0,0,1,1,2,2,3,3,4,4,5,5,6,6,7,7,8,8,9,9,10,10,11,11,12,12,13,13,14,14,15,15,16,16,17,17,18,18,19,19,20,20,21,21,22,22,23,23,24,24,25,25,26,26,27,27,28,28,29,29,30,30,31,31,33,33,36,36,38,38,39,39,40,40,41,41,42,42,43,43,45,45,47,47,48,48,49,49,50,50,51,51,52,52,53,53,54,54,55,55,56,56,57,57,59,59,60,60],"right_children":[2,4,6,8,10,12,14,16,18,20,22,24,26,28,30,32,34,36,38,40,42,44,46,48,50,52,54,56,58,60,62,64,-1,66,-1,-1,68,-1,70,72,74,76,78,80,-1,82,-1,84,86,88,90,92,94,96,98,100,102,104,-1,106,108,-1,-1,-1,-1,-1,-1,-1,-1,-1,-1,-1,-1,-1,-1,-1,-1,-1,-1,-1,-1,-1,-1,-1,-1,-1,-1,-1,-1,-1,-1,-1,-1,-1,-1,-1,-1,-1,-1,-1,-1,-1,-1,-1,-1,-1,-1,-1,-1],"split_conditions":[1.2033334E3,2.02778E2,2.0833333E3,8E2,5.2E1,1.515E3,2.9333333E3,6.95E2,1.0266666E3,1.1272727E3,2.898077E2,1.4066666E3,1.6833334E3,2.2386365E3,3.6E3,5.1E1,5.1E1,8.7E2,8.366667E2,2.903935E2,3.097046E2,8.15E2,1E0,3.656768E2,1.45E3,3.677045E2,1.8625E3,1.365E3,2.45E3,1E0,9E0,7.4E2,-2.1168326E-3,7.65E2,-8.353829E-4,-6.1247647E-3,9.4E2,-6.473701E-3,2E0,7.65E2,2E0,1.56E3,1.2666666E3,5.9E2,5.686444E-3,4E0,2.0676756E-3,1.06E3,2E0,2.6E1,5.2E1,1.49E3,2E0,1.735E3,1.91E3,1E0,3.677045E2,2.1166667E3,7.724594E-3,9E0,2.2522727E3,1.3346241E-2,1.3450205E-3,-9.511206E-3,-7.5604436E-3,-7.7146953E-3,-6.8234745E-3,-5.3537E-3,-4.390031E-3,-1.5571403E-3,-2.9757612E-3,-1.0805496E-3,1.3588911E-3,6.059227E-4,-3.4564203E-3,-1.9010252E-3,-8.229017E-5,-1.3565922E-3,4.8651252E-4,3.9330838E-4,2.9720755E-3,-6.5288274E-4,1.3359976E-3,-2.6976792E-3,-4.6490197E-4,4.1970694E-3,-4.4231652E-4,8.387385E-5,9.761136E-4,1.2966482E-3,4.012184E-3,8.7486615E-4,2.1664936E-3,5.9818425E-3,3.4708169E-3,2.5738487E-3,3.2067136E-3,3.6817824E-3,4.381378E-3,-5.7360455E-3,4.284582E-3,4.980738E-3,7.0351902E-3,4.089086E-3,6.1787614E-3,3.874719E-4,4.625723E-3,2.625439E-3,1.0416715E-2],"split_indices":[9,7,9,9,1,9,10,9,9,10,7,10,10,10,9,1,1,10,10,7,7,10,6,7,9,7,9,10,9,3,3,10,0,10,0,0,9,0,3,10,1,10,10,9,0,3,0,10,1,1,1,10,1,9,10,3,7,9,0,0,9,0,0,0,0,0,0,0,0,0,0,0,0,0,0,0,0,0,0,0,0,0,0,0,0,0,0,0,0,0,0,0,0,0,0,0,0,0,0,0,0,0,0,0,0,0,0,0,0],"split_type":[0,0,0,0,0,0,0,0,0,0,0,0,0,0,0,0,0,0,0,0,0,0,0,0,0,0,0,0,0,0,0,0,0,0,0,0,0,0,0,0,0,0,0,0,0,0,0,0,0,0,0,0,0,0,0,0,0,0,0,0,0,0,0,0,0,0,0,0,0,0,0,0,0,0,0,0,0,0,0,0,0,0,0,0,0,0,0,0,0,0,0,0,0,0,0,0,0,0,0,0,0,0,0,0,0,0,0,0,0],"sum_hessian":[5.696E3,1.923E3,3.773E3,1.457E3,4.66E2,3.026E3,7.47E2,7.57E2,7E2,4.33E2,3.3E1,1.172E3,1.854E3,5.42E2,2.05E2,3.45E2,4.12E2,5.93E2,1.07E2,2.09E2,2.24E2,2.4E1,9E0,6.71E2,5.01E2,6.67E2,1.187E3,2.43E2,2.99E2,1.37E2,6.8E1,3.43E2,2E0,4.11E2,1E0,2.63E2,3.3E2,8E0,9.9E1,2.8E1,1.81E2,1.42E2,8.2E1,1.1E1,1.3E1,8E0,1E0,6.5E2,2.1E1,2.75E2,2.26E2,6.37E2,3E1,7.45E2,4.42E2,4E0,2.39E2,1.65E2,1.34E2,2E0,1.35E2,6.7E1,1E0,3.07E2,3.6E1,2.44E2,1.67E2,1.95E2,1.35E2,3.3E1,6.6E1,1.3E1,1.5E1,6E0,1.75E2,1.31E2,1.1E1,4.9E1,3.3E1,1E0,1E1,7E0,1E0,3.4E1,6.16E2,1.9E1,2E0,1.44E2,1.31E2,2.2E2,6E0,1.73E2,4.64E2,1.2E1,1.8E1,3.07E2,4.38E2,2.19E2,2.23E2,2E0,2E0,2.23E2,1.6E1,1E1,1.55E2,1E0,1E0,1E0,1.34E2],"tree_param":{"num_deleted":"0","num_feature":"11","num_nodes":"109","size_leaf_vector":"1"}},{"base_weights":[-4.301921E-3,-3.7051365E-1,1.9752616E-1,-4.8253483E-1,-2.0174418E-1,1.09901816E-1,4.5856333E-1,-5.77097E-1,-4.0531808E-1,-2.8986907E-1,-1.3243303E-1,6.14875E-3,1.8065904E-1,3.7007442E-1,7.380346E-1,-6.397346E-1,-5.232723E-1,-4.2084655E-1,-1.9532712E-1,-3.277392E-1,-1.8163532E-1,-1.399828E-1,1.4801025E-2,-2.759909E-2,5.775363E-2,1.352096E-1,2.239274E-1,4.3146363E-1,3.0228534E-1,6.644529E-1,1.329326E-2,-9.620823E-3,-1.7594147E-3,-5.318594E-1,-9.15385E-2,-4.8543513E-1,-3.9612785E-1,-2.6485306E-1,-2.4713198E-2,-3.9222586E-1,-3.0012295E-1,1.0939682E-2,-2.2127813E-1,-1.8717915E-1,-1.1029224E-1,-5.745688E-2,1.5746671E-1,-3.277844E-2,1.5240467E-1,2.4263136E-2,9.745495E-2,-5.4148585E-2,1.3891104E-1,2.0941496E-1,2.6492637E-1,3.817321E-1,7.5030094E-3,-4.7005797E-3,3.0691016E-1,5.009664E-1,1.0393722E-2,-8.603683E-3,-7.4042547E-3,-1.8978323E-3,-4.079342E-5,-7.3001827E-3,-2.0829535E-3,-6.497773E-3,-5.6253984E-3,-5.3044567E-3,-7.061908E-4,-7.5122237E-4,8.635497E-4,-5.992805E-3,-1.2597751E-3,-4.646628E-3,-2.7806696E-3,-9.6677034E-4,1.5571654E-3,-3.5546063E-3,8.290915E-4,-2.5859121E-3,-4.8530432E-3,-1.8010522E-3,4.7459247E-4,-1.7373633E-3,-3.0595195E-4,1.1737245E-3,3.2568453E-3,-8.7753986E-4,4.4707434E-5,3.395771E-3,6.7576085E-4,1.8967518E-4,2.2714536E-3,1.3328238E-3,2.7796642E-3,8.056662E-4,-5.8673304E-3,1.6340788E-3,2.3381892E-3,1.7545654E-3,3.206298E-3,3.5962623E-3,4.2982367E-3,4.880434E-3,6.0896706E-3,-1.5676171E-3,4.664321E-3,7.6669753E-3,1.8512534E-3],"categories":[],"categories_nodes":[],"categories_segments":[],"categories_sizes":[],"default_left":[0,0,0,0,0,0,0,0,0,0,0,0,0,0,0,0,0,0,0,0,0,0,0,0,0,0,0,0,0,0,0,0,0,0,0,0,0,0,0,0,0,0,0,0,0,0,0,0,0,0,0,0,0,0,0,0,0,0,0,0,0,0,0,0,0,0,0,0,0,0,0,0,0,0,0,0,0,0,0,0,0,0,0,0,0,0,0,0,0,0,0,0,0,0,0,0,0,0,0,0,0,0,0,0,0,0,0,0,0,0,0],"id":13,"left_children":[1,3,5,7,9,11,13,15,17,19,21,23,25,27,29,31,33,35,37,39,41,43,45,47,49,51,53,55,57,59,-1,-1,-1,61,63,65,67,69,71,73,75,77,79,81,83,85,87,89,91,93,95,97,99,101,103,105,-1,-1,107,109,-1,-1,-1,-1,-1,-1,-1,-1,-1,-1,-1,-1,-1,-1,-1,-1,-1,-1,-1,-1,-1,-1,-1,-1,-1,-1,-1,-1,-1,-1,-1,-1,-1,-1,-1,-1,-1,-1,-1,-1,-1,-1,-1,-1,-1,-1,-1,-1,-1,-1,-1],"loss_changes":[4.1937488E2,3.8016632E1,8.361981E1,8.608582E0,4.8846893E0,2.0113998E1,2.2453842E1,1.492569E0,2.102562E0,1.3914566E0,5.056186E-1,1.9382013E0,3.1731834E0,2.7826385E0,1.8099289E0,1.3729858E-1,1.0523987E0,8.023529E-1,5.628352E-1,3.4709167E-1,7.2003675E-1,5.833101E-1,2.461482E-1,6.324347E-1,5.8266675E-1,5.6613636E-1,4.401474E-1,1.0567703E0,1.052866E0,3.5549927E-1,0E0,0E0,0E0,1.8114471E-1,2.1406397E-2,4.837036E-3,1.9410706E-1,6.4068604E-1,3.4193948E-2,1.3508034E-1,1.4968681E-1,1.2571912E-1,3.516686E-1,2.7687073E-1,3.7434053E-1,3.224714E-2,2.0817518E-2,6.026897E-1,1.4070019E-1,3.5267153E-1,1.354028E-1,6.026004E-1,3.8072777E-1,2.2364807E-1,4.779339E-2,1.6312599E-1,0E0,0E0,5.882778E-1,3.6703587E-2,0E0,0E0,0E0,0E0,0E0,0E0,0E0,0E0,0E0,0E0,0E0,0E0,0E0,0E0,0E0,0E0,0E0,0E0,0E0,0E0,0E0,0E0,0E0,0E0,0E0,0E0,0E0,0E0,0E0,0E0,0E0,0E0,0E0,0E0,0E0,0E0,0E0,0E0,0E0,0E0,0E0,0E0,0E0,0E0,0E0,0E0,0E0,0E0,0E0,0E0,0E0],"parents":[2147483647,0,0,1,1,2,2,3,3,4,4,5,5,6,6,7,7,8,8,9,9,10,10,11,11,12,12,13,13,14,14,15,15,16,16,17,17,18,18,19,19,20,20,21,21,22,22,23,23,24,24,25,25,26,26,27,27,28,28,29,29,33,33,34,34,35,35,36,36,37,37,38,38,39,39,40,40,41,41,42,42,43,43,44,44,45,45,46,46,47,47,48,48,49,49,50,50,51,51,52,52,53,53,54,54,55,55,58,58,59,59],"right_children":[2,4,6,8,10,12,14,16,18,20,22,24,26,28,30,32,34,36,38,40,42,44,46,48,50,52,54,56,58,60,-1,-1,-1,62,64,66,68,70,72,74,76,78,80,82,84,86,88,90,92,94,96,98,100,102,104,106,-1,-1,108,110,-1,-1,-1,-1,-1,-1,-1,-1,-1,-1,-1,-1,-1,-1,-1,-1,-1,-1,-1,-1,-1,-1,-1,-1,-1,-1,-1,-1,-1,-1,-1,-1,-1,-1,-1,-1,-1,-1,-1,-1,-1,-1,-1,-1,-1,-1,-1,-1,-1,-1,-1],"split_conditions":[1.224E3,9E2,2E3,7.45E2,1.04E3,1.515E3,2.7666667E3,6.7E2,2.02778E2,2.02778E2,1.56E3,1.42E3,1.735E3,1E0,3.6E3,5.1E1,5.1E1,7.65E2,4.8E1,8.65E2,2.981652E2,1.14E3,1.48E3,5.2E1,1.49E3,1.99544E2,1.91E3,2.3583333E3,8.05E2,2.8E3,1.329326E-2,-9.620823E-3,-1.7594147E-3,7.15E2,7.1E2,5.1E1,8.05E2,1.105E3,8.55E2,5E1,1.105E3,4.6E1,1.425E3,6E0,5.1E1,2E0,4E0,1.38E3,8.55E2,5.1E1,1.8125E3,1E0,1.58E3,1.385E3,1.875E3,2.1166667E3,7.5030094E-3,-4.7005797E-3,1.994965E2,3E0,1.0393722E-2,-8.603683E-3,-7.4042547E-3,-1.8978323E-3,-4.079342E-5,-7.3001827E-3,-2.0829535E-3,-6.497773E-3,-5.6253984E-3,-5.3044567E-3,-7.061908E-4,-7.5122237E-4,8.635497E-4,-5.992805E-3,-1.2597751E-3,-4.646628E-3,-2.7806696E-3,-9.6677034E-4,1.5571654E-3,-3.5546063E-3,8.290915E-4,-2.5859121E-3,-4.8530432E-3,-1.8010522E-3,4.7459247E-4,-1.7373633E-3,-3.0595195E-4,1.1737245E-3,3.2568453E-3,-8.7753986E-4,4.4707434E-5,3.395771E-3,6.7576085E-4,1.8967518E-4,2.2714536E-3,1.3328238E-3,2.7796642E-3,8.056662E-4,-5.8673304E-3,1.6340788E-3,2.3381892E-3,1.7545654E-3,3.206298E-3,3.5962623E-3,4.2982367E-3,4.880434E-3,6.0896706E-3,-1.5676171E-3,4.664321E-3,7.6669753E-3,1.8512534E-3],"split_indices":[8,8,8,8,8,8,10,9,7,7,10,8,8,2,8,1,1,10,1,10,7,8,9,1,10,7,10,8,9,8,0,0,0,10,10,1,8,10,10,1,9,1,10,2,1,6,2,10,9,1,9,2,9,9,8,9,0,0,7,6,0,0,0,0,0,0,0,0,0,0,0,0,0,0,0,0,0,0,0,0,0,0,0,0,0,0,0,0,0,0,0,0,0,0,0,0,0,0,0,0,0,0,0,0,0,0,0,0,0,0,0],"split_type":[0,0,0,0,0,0,0,0,0,0,0,0,0,0,0,0,0,0,0,0,0,0,0,0,0,0,0,0,0,0,0,0,0,0,0,0,0,0,0,0,0,0,0,0,0,0,0,0,0,0,0,0,0,0,0,0,0,0,0,0,0,0,0,0,0,0,0,0,0,0,0,0,0,0,0,0,0,0,0,0,0,0,0,0,0,0,0,0,0,0,0,0,0,0,0,0,0,0,0,0,0,0,0,0,0,0,0,0,0,0,0],"sum_hessian":[5.672E3,2.015E3,3.657E3,1.21E3,8.05E2,2.739E3,9.18E2,5.41E2,6.69E2,3.53E2,4.52E2,1.111E3,1.628E3,6.99E2,2.19E2,2.45E2,2.96E2,6.22E2,4.7E1,2.6E2,9.3E1,4.3E2,2.2E1,6.72E2,4.39E2,7.96E2,8.32E2,3.64E2,3.35E2,1.5E2,6.9E1,2.44E2,1E0,2.9E2,6E0,1.67E2,4.55E2,3.3E1,1.4E1,7.4E1,1.86E2,1.6E1,7.7E1,1.64E2,2.66E2,1.5E1,7E0,6.54E2,1.8E1,2.39E2,2E2,1.5E1,7.81E2,6.19E2,2.13E2,2.15E2,1.49E2,2E0,3.33E2,2.5E1,1.25E2,1.32E2,1.58E2,4E0,2E0,1.66E2,1E0,1.58E2,2.97E2,2.3E1,1E1,1.1E1,3E0,7.2E1,2E0,1.7E2,1.6E1,9E0,7E0,7.3E1,4E0,1.5E2,1.4E1,2.49E2,1.7E1,5E0,1E1,4E0,3E0,3.8E2,2.74E2,1E1,8E0,2.2E2,1.9E1,1.84E2,1.6E1,1.2E1,3E0,2.85E2,4.96E2,2.9E1,5.9E2,1.04E2,1.09E2,6.9E1,1.46E2,3E0,3.3E2,2.4E1,1E0],"tree_param":{"num_deleted":"0","num_feature":"11","num_nodes":"111","size_leaf_vector":"1"}},{"base_weights":[-1.3575596E-3,-3.5859188E-1,1.9322762E-1,-4.6696132E-1,-1.8004914E-1,1.0881098E-1,4.519804E-1,-5.664148E-1,-3.9155117E-1,-2.701603E-1,-1.1780167E-1,2.032202E-2,1.8707833E-1,3.677815E-1,7.1354014E-1,-6.2215394E-1,-5.10441E-1,-4.1122663E-1,-1.9335766E-1,-1.4454395E-1,-3.16357E-1,1.3582584E-1,-1.2673646E-1,-2.5906693E-2,6.84485E-2,1.3994116E-1,2.2010297E-1,4.2031825E-1,3.0667716E-1,6.358391E-1,8.698362E-1,-9.3808845E-3,-1.9306157E-3,-5.2557254E-1,-6.6675846E-3,-4.5607188E-1,-3.7321156E-1,-8.753638E-3,-2.8965628E-1,-2.4026239E-1,-1.0578544E-1,-6.423696E-2,-3.183039E-1,4.6394824E-4,1.486017E-1,-1.4041963E-1,-1.4405397E-2,-9.062641E-2,-1.5261382E-2,3.0834725E-2,9.834938E-2,-6.393523E-2,1.4272432E-1,2.0290832E-1,2.6946622E-1,3.7215123E-1,7.0651337E-3,-4.0610326E-3,3.0929488E-1,4.7863197E-2,6.5140694E-1,1.3207599E-2,9.218144E-4,-7.950503E-3,-3.4294853E-3,-6.8571423E-3,-1.051097E-3,-5.9968857E-3,-5.166144E-3,-5.308432E-4,1.1557853E-3,-4.7444906E-3,2.698493E-3,-4.169573E-3,-2.6908342E-3,-1.7792447E-3,1.0016412E-3,-1.2768602E-3,-1.6847134E-4,-5.7505313E-3,-4.527178E-3,6.067264E-4,2.3071466E-3,-2.7211523E-3,-1.6253662E-3,-7.543861E-4,2.2602072E-3,-9.076861E-4,-5.574883E-3,3.0658026E-3,-3.3385164E-4,-1.453967E-3,5.7314825E-4,9.0113987E-4,1.6747306E-3,9.996475E-4,-5.209596E-3,1.6104184E-3,2.3868226E-3,2.7034134E-3,3.3469754E-3,9.969377E-4,4.065039E-3,4.727718E-3,5.945083E-3,-2.5640952E-3,4.6696635E-3,-4.416264E-3,3.105567E-3,3.9317654E-3,9.824165E-3],"categories":[],"categories_nodes":[],"categories_segments":[],"categories_sizes":[],"default_left":[0,0,0,0,0,0,0,0,0,0,0,0,0,0,0,0,0,0,0,0,0,0,0,0,0,0,0,0,0,0,0,0,0,0,0,0,0,0,0,0,0,0,0,0,0,0,0,0,0,0,0,0,0,0,0,0,0,0,0,0,0,0,0,0,0,0,0,0,0,0,0,0,0,0,0,0,0,0,0,0,0,0,0,0,0,0,0,0,0,0,0,0,0,0,0,0,0,0,0,0,0,0,0,0,0,0,0,0,0,0,0],"id":14,"left_children":[1,3,5,7,9,11,13,15,17,19,21,23,25,27,29,31,33,35,37,39,41,43,45,47,49,51,53,55,57,59,61,-1,-1,63,-1,65,67,69,71,73,75,77,79,-1,81,83,85,87,89,91,93,95,97,99,101,103,-1,-1,105,107,109,-1,-1,-1,-1,-1,-1,-1,-1,-1,-1,-1,-1,-1,-1,-1,-1,-1,-1,-1,-1,-1,-1,-1,-1,-1,-1,-1,-1,-1,-1,-1,-1,-1,-1,-1,-1,-1,-1,-1,-1,-1,-1,-1,-1,-1,-1,-1,-1,-1,-1],"loss_changes":[3.9997476E2,3.9174194E1,8.131618E1,9.242981E0,4.2760334E0,1.9457684E1,1.9910675E1,1.3734283E0,2.7320633E0,1.7706318E0,1.0505586E0,2.9385424E0,2.2902222E0,2.1022034E0,2.1429749E0,3.4616852E-1,4.1748047E-2,9.464264E-1,1.1885312E0,2.9363573E-1,9.14669E-2,1.6845912E-2,6.7581415E-1,4.6297693E-1,7.2463846E-1,3.5922432E-1,6.8800735E-1,7.305603E-1,5.749779E-1,1.3601608E0,5.583191E-1,0E0,0E0,1.6891861E-1,0E0,9.032059E-2,1.3791656E-1,5.7579346E-2,6.073611E-1,5.226493E-3,1.474101E-1,2.3653246E-3,1.2680435E-1,0E0,1.6644299E-3,4.968357E-1,2.9787564E-1,7.814963E-1,8.95734E-1,2.7508435E-1,1.7653632E-1,3.5616502E-1,3.3604813E-1,2.5930595E-1,5.1542282E-2,1.4378548E-1,0E0,0E0,3.669014E-1,3.3336768E-1,3.213501E-2,0E0,0E0,0E0,0E0,0E0,0E0,0E0,0E0,0E0,0E0,0E0,0E0,0E0,0E0,0E0,0E0,0E0,0E0,0E0,0E0,0E0,0E0,0E0,0E0,0E0,0E0,0E0,0E0,0E0,0E0,0E0,0E0,0E0,0E0,0E0,0E0,0E0,0E0,0E0,0E0,0E0,0E0,0E0,0E0,0E0,0E0,0E0,0E0,0E0,0E0],"parents":[2147483647,0,0,1,1,2,2,3,3,4,4,5,5,6,6,7,7,8,8,9,9,10,10,11,11,12,12,13,13,14,14,15,15,16,16,17,17,18,18,19,19,20,20,21,21,22,22,23,23,24,24,25,25,26,26,27,27,28,28,29,29,30,30,33,33,35,35,36,36,37,37,38,38,39,39,40,40,41,41,42,42,44,44,45,45,46,46,47,47,48,48,49,49,50,50,51,51,52,52,53,53,54,54,55,55,58,58,59,59,60,60],"right_children":[2,4,6,8,10,12,14,16,18,20,22,24,26,28,30,32,34,36,38,40,42,44,46,48,50,52,54,56,58,60,62,-1,-1,64,-1,66,68,70,72,74,76,78,80,-1,82,84,86,88,90,92,94,96,98,100,102,104,-1,-1,106,108,110,-1,-1,-1,-1,-1,-1,-1,-1,-1,-1,-1,-1,-1,-1,-1,-1,-1,-1,-1,-1,-1,-1,-1,-1,-1,-1,-1,-1,-1,-1,-1,-1,-1,-1,-1,-1,-1,-1,-1,-1,-1,-1,-1,-1,-1,-1,-1,-1,-1,-1],"split_conditions":[1.24E3,9.2E2,2E3,7.45E2,2.02778E2,1.565E3,2.8E3,6.8E2,2.02778E2,1E0,2.898077E2,1.42E3,1.715E3,1E0,3.6E3,2.02778E2,7.65E2,8.1E2,2.971474E2,1.06E3,6.2E2,6.75E2,1.4066666E3,2.026712E2,1.49E3,1.994965E2,1.91E3,2.35E3,1.969664E2,1.91E3,1E0,-9.3808845E-3,-1.9306157E-3,2.02778E2,-6.6675846E-3,9.05E2,1E0,8.65E2,1.4066666E3,1.04E3,1.4066666E3,2E0,8.35E2,4.6394824E-4,9.466667E2,1.14E3,1.49E3,2E0,2.898077E2,1.99544E2,1.48E3,1E0,1.5766666E3,1E0,1.735E3,2.1166667E3,7.0651337E-3,-4.0610326E-3,8.05E2,1E0,1E0,1.3207599E-2,9.218144E-4,-7.950503E-3,-3.4294853E-3,-6.8571423E-3,-1.051097E-3,-5.9968857E-3,-5.166144E-3,-5.308432E-4,1.1557853E-3,-4.7444906E-3,2.698493E-3,-4.169573E-3,-2.6908342E-3,-1.7792447E-3,1.0016412E-3,-1.2768602E-3,-1.6847134E-4,-5.7505313E-3,-4.527178E-3,6.067264E-4,2.3071466E-3,-2.7211523E-3,-1.6253662E-3,-7.543861E-4,2.2602072E-3,-9.076861E-4,-5.574883E-3,3.0658026E-3,-3.3385164E-4,-1.453967E-3,5.7314825E-4,9.0113987E-4,1.6747306E-3,9.996475E-4,-5.209596E-3,1.6104184E-3,2.3868226E-3,2.7034134E-3,3.3469754E-3,9.969377E-4,4.065039E-3,4.727718E-3,5.945083E-3,-2.5640952E-3,4.6696635E-3,-4.416264E-3,3.105567E-3,3.9317654E-3,9.824165E-3],"split_indices":[8,8,8,8,7,8,8,10,7,2,7,8,8,2,8,7,9,9,7,10,10,10,10,7,10,7,10,8,7,9,2,0,0,7,0,8,4,8,10,8,9,2,9,0,8,8,9,4,7,7,8,2,9,4,8,9,0,0,9,6,4,0,0,0,0,0,0,0,0,0,0,0,0,0,0,0,0,0,0,0,0,0,0,0,0,0,0,0,0,0,0,0,0,0,0,0,0,0,0,0,0,0,0,0,0,0,0,0,0,0,0],"split_type":[0,0,0,0,0,0,0,0,0,0,0,0,0,0,0,0,0,0,0,0,0,0,0,0,0,0,0,0,0,0,0,0,0,0,0,0,0,0,0,0,0,0,0,0,0,0,0,0,0,0,0,0,0,0,0,0,0,0,0,0,0,0,0,0,0,0,0,0,0,0,0,0,0,0,0,0,0,0,0,0,0,0,0,0,0,0,0,0,0,0,0,0,0,0,0,0,0,0,0,0,0,0,0,0,0,0,0,0,0,0,0],"sum_hessian":[5.752E3,2.028E3,3.724E3,1.261E3,7.67E2,2.809E3,9.15E2,5.41E2,7.2E2,3.12E2,4.55E2,1.319E3,1.49E3,6.94E2,2.21E2,2.66E2,2.75E2,6.54E2,6.6E1,8.5E1,2.27E2,1.5E1,4.4E2,6.73E2,6.46E2,6.16E2,8.74E2,3.7E2,3.24E2,1.51E2,7E1,2.64E2,2E0,2.18E2,5.7E1,2.95E2,3.59E2,2.3E1,4.3E1,2.3E1,6.2E1,2E0,2.25E2,2E0,1.3E1,3.92E2,4.8E1,9.4E1,5.79E2,2.87E2,3.59E2,8E0,6.08E2,6.52E2,2.22E2,1.94E2,1.76E2,1E0,3.23E2,4E0,1.47E2,6.9E1,1E0,2.14E2,4E0,2.94E2,1E0,1.8E2,1.79E2,1.8E1,5E0,4.1E1,2E0,1.2E1,1.1E1,5.8E1,4E0,1E0,1E0,4.1E1,1.84E2,1E0,1.2E1,1.7E2,2.22E2,4E1,8E0,8.6E1,8E0,1.7E1,5.62E2,1.5E1,2.72E2,9.4E1,2.65E2,6E0,2E0,1.95E2,4.13E2,3.12E2,3.4E2,2E0,2.2E2,6.2E1,1.32E2,1E0,3.22E2,1E0,3E0,2E0,1.45E2],"tree_param":{"num_deleted":"0","num_feature":"11","num_nodes":"111","size_leaf_vector":"1"}},{"base_weights":[-1.0828997E-4,-3.8497493E-1,1.770887E-1,-5.1761526E-1,-2.7192235E-1,9.4740614E-2,4.4320554E-1,-6.1131835E-1,-4.6521124E-1,-3.3426225E-1,-1.4503603E-1,-6.4808647E-3,1.7496468E-1,3.7240282E-1,7.507379E-1,-9.25841E-3,-2.2305078E-3,-4.722373E-1,-5.122795E-2,-3.5327423E-1,-1.6384064E-1,6.491027E-2,-1.584595E-1,-6.8504944E-2,3.0681165E-2,1.158867E-1,2.068964E-1,3.2847226E-1,4.6420357E-1,1.00739105E-2,1.3042065E-2,-7.7803964E-3,-4.448387E-1,-7.340034E-2,1.1124265E-3,-4.040566E-1,-3.269096E-1,-1.7269109E-1,1.2379909E-3,1.7767271E-2,1.8083302E-3,-1.8542108E-1,-6.472805E-2,-7.935899E-2,1.0165443E-1,-1.5415752E-3,5.765677E-2,-5.5770654E-2,1.1958541E-1,1.8218721E-1,2.4029334E-1,2.8787023E-1,3.6002278E-1,-4.3831407E-3,4.6859112E-1,-6.7222933E-3,-2.817985E-3,-1.1718884E-3,-2.669692E-4,-1.5052842E-3,-6.076572E-3,-5.3495932E-3,-4.6314253E-3,-3.2686545E-3,-1.9887253E-3,2.3558305E-3,-1.3759569E-4,-4.2741774E-3,-2.3832484E-3,4.4338603E-4,-1.5989172E-3,-1.5805397E-3,-9.1890036E-4,2.9124273E-3,2.9238308E-4,-1.1718972E-4,2.1006877E-3,7.623603E-4,2.374992E-3,1.2668335E-3,-2.3095347E-3,1.7462297E-3,3.704165E-3,3.7819147E-5,2.7902746E-3,3.321466E-3,3.9731874E-3,-2.5448655E-3,4.3594977E-3,4.833915E-3,5.7995347E-3,6.2673776E-3,7.6510664E-3],"categories":[],"categories_nodes":[],"categories_segments":[],"categories_sizes":[],"default_left":[0,0,0,0,0,0,0,0,0,0,0,0,0,0,0,0,0,0,0,0,0,0,0,0,0,0,0,0,0,0,0,0,0,0,0,0,0,0,0,0,0,0,0,0,0,0,0,0,0,0,0,0,0,0,0,0,0,0,0,0,0,0,0,0,0,0,0,0,0,0,0,0,0,0,0,0,0,0,0,0,0,0,0,0,0,0,0,0,0,0,0,0,0],"id":15,"left_children":[1,3,5,7,9,11,13,15,17,19,21,23,25,27,29,-1,-1,31,33,35,37,39,41,43,45,47,49,51,53,-1,-1,-1,55,57,-1,59,61,63,-1,65,-1,67,69,71,73,75,77,79,81,83,85,87,89,-1,91,-1,-1,-1,-1,-1,-1,-1,-1,-1,-1,-1,-1,-1,-1,-1,-1,-1,-1,-1,-1,-1,-1,-1,-1,-1,-1,-1,-1,-1,-1,-1,-1,-1,-1,-1,-1,-1,-1],"loss_changes":[3.874283E2,2.6715881E1,8.5204285E1,3.7568665E0,7.6163864E0,2.4134966E1,1.9730835E1,7.064209E-1,1.5232239E0,2.0449142E0,9.149308E-1,3.0330987E0,3.1037712E0,2.8681335E0,1.0229492E0,0E0,0E0,4.3495178E-1,3.3245392E-2,6.484604E-1,1.603471E-1,5.032359E-2,7.5119734E-1,9.1859746E-1,7.154634E-1,3.774562E-1,8.4331894E-1,5.496788E-1,9.3343735E-1,0E0,0E0,0E0,2.019577E-1,9.742901E-4,0E0,2.1425247E-2,9.976196E-2,8.90007E-2,0E0,4.6470266E-2,0E0,5.7275677E-1,2.7552596E-1,2.1197796E-1,2.2423375E-1,3.3494645E-1,3.001294E-1,1.920133E-1,2.0219135E-1,4.276657E-1,1.518879E-1,3.3752632E-1,1.5979767E-1,0E0,2.9016495E-1,0E0,0E0,0E0,0E0,0E0,0E0,0E0,0E0,0E0,0E0,0E0,0E0,0E0,0E0,0E0,0E0,0E0,0E0,0E0,0E0,0E0,0E0,0E0,0E0,0E0,0E0,0E0,0E0,0E0,0E0,0E0,0E0,0E0,0E0,0E0,0E0,0E0,0E0],"parents":[2147483647,0,0,1,1,2,2,3,3,4,4,5,5,6,6,7,7,8,8,9,9,10,10,11,11,12,12,13,13,14,14,17,17,18,18,19,19,20,20,21,21,22,22,23,23,24,24,25,25,26,26,27,27,28,28,32,32,33,33,35,35,36,36,37,37,39,39,41,41,42,42,43,43,44,44,45,45,46,46,47,47,48,48,49,49,50,50,51,51,52,52,54,54],"right_children":[2,4,6,8,10,12,14,16,18,20,22,24,26,28,30,-1,-1,32,34,36,38,40,42,44,46,48,50,52,54,-1,-1,-1,56,58,-1,60,62,64,-1,66,-1,68,70,72,74,76,78,80,82,84,86,88,90,-1,92,-1,-1,-1,-1,-1,-1,-1,-1,-1,-1,-1,-1,-1,-1,-1,-1,-1,-1,-1,-1,-1,-1,-1,-1,-1,-1,-1,-1,-1,-1,-1,-1,-1,-1,-1,-1,-1,-1],"split_conditions":[1.18E3,8.1E2,1.975E3,6.8E2,2.02778E2,1.52E3,3.05E3,5.1E1,5.1E1,1.06E3,2.898077E2,1.32E3,1.7E3,2.3583333E3,3.6E3,-9.25841E-3,-2.2305078E-3,7.3E2,9.85E2,8.35E2,1.46E3,8.95E2,1.2666666E3,5.1E1,1.4133334E3,1.99544E2,1.8166666E3,2.06E3,6.9E2,1.00739105E-2,1.3042065E-2,-7.7803964E-3,9.65E2,7.833333E2,1.1124265E-3,5.8E2,8.85E2,1.08E3,1.2379909E-3,7.75E2,1.8083302E-3,9.6E2,2E0,1.24E3,2.898077E2,5.1E1,5.1E1,2.9E1,5.2E1,1.1818182E3,1.8625E3,8.05E2,2.1833333E3,-4.3831407E-3,2.5E3,-6.7222933E-3,-2.817985E-3,-1.1718884E-3,-2.669692E-4,-1.5052842E-3,-6.076572E-3,-5.3495932E-3,-4.6314253E-3,-3.2686545E-3,-1.9887253E-3,2.3558305E-3,-1.3759569E-4,-4.2741774E-3,-2.3832484E-3,4.4338603E-4,-1.5989172E-3,-1.5805397E-3,-9.1890036E-4,2.9124273E-3,2.9238308E-4,-1.1718972E-4,2.1006877E-3,7.623603E-4,2.374992E-3,1.2668335E-3,-2.3095347E-3,1.7462297E-3,3.704165E-3,3.7819147E-5,2.7902746E-3,3.321466E-3,3.9731874E-3,-2.5448655E-3,4.3594977E-3,4.833915E-3,5.7995347E-3,6.2673776E-3,7.6510664E-3],"split_indices":[8,9,8,8,7,8,8,1,1,8,7,8,8,8,8,0,0,9,8,8,9,8,9,1,8,7,9,9,9,0,0,0,8,9,0,8,9,9,0,8,0,8,6,8,7,1,1,1,1,9,8,9,8,0,9,0,0,0,0,0,0,0,0,0,0,0,0,0,0,0,0,0,0,0,0,0,0,0,0,0,0,0,0,0,0,0,0,0,0,0,0,0,0],"split_type":[0,0,0,0,0,0,0,0,0,0,0,0,0,0,0,0,0,0,0,0,0,0,0,0,0,0,0,0,0,0,0,0,0,0,0,0,0,0,0,0,0,0,0,0,0,0,0,0,0,0,0,0,0,0,0,0,0,0,0,0,0,0,0,0,0,0,0,0,0,0,0,0,0,0,0,0,0,0,0,0,0,0,0,0,0,0,0,0,0,0,0,0,0],"sum_hessian":[5.679E3,1.79E3,3.889E3,8.22E2,9.68E2,2.971E3,9.18E2,2.91E2,5.31E2,6.48E2,3.2E2,1.314E3,1.657E3,7.48E2,1.7E2,2.87E2,4E0,5.22E2,9E0,5.82E2,6.6E1,1.9E1,3.01E2,4.92E2,8.22E2,5.83E2,1.074E3,5.09E2,2.39E2,1.06E2,6.4E1,1.87E2,3.35E2,8E0,1E0,1.94E2,3.88E2,6.4E1,2E0,1.1E1,8E0,2.33E2,6.8E1,4.63E2,2.9E1,3.75E2,4.47E2,1.2E1,5.71E2,6.21E2,4.53E2,2.27E2,2.82E2,1E0,2.38E2,3.3E2,5E0,7E0,1E0,1E0,1.93E2,1.4E2,2.48E2,2.8E1,3.6E1,1E0,1E1,4.7E1,1.86E2,2.1E1,4.7E1,1.88E2,2.75E2,1.3E1,1.6E1,3.6E2,1.5E1,4.2E2,2.7E1,5E0,7E0,5.59E2,1.2E1,1.3E1,6.08E2,2.62E2,1.91E2,1E0,2.26E2,1.22E2,1.6E2,1.12E2,1.26E2],"tree_param":{"num_deleted":"0","num_feature":"11","num_nodes":"93","size_leaf_vector":"1"}},{"base_weights":[4.3818434E-3,-3.6356577E-1,1.741593E-1,-4.3100566E-1,-1.0506583E-1,9.3532756E-2,4.2737275E-1,-5.4301924E-1,-3.4626314E-1,-1.4343324E-1,2.4930228E-1,-2.8528519E-2,1.5729953E-1,3.5054094E-1,7.1732026E-1,-9.179006E-3,-4.951012E-1,-4.056861E-1,-2.867209E-1,-1.7274697E-3,-1.5668403E-1,2.9080164E-1,-1.3577938E-2,-5.0082956E-2,2.3862034E-2,9.590877E-2,1.9514382E-1,2.834236E-1,4.1601628E-1,6.568502E-1,1.2372696E-2,-4.9669865E-1,-2.0276927E-3,-4.075322E-1,-2.123642E-2,-3.12973E-1,-1.5622883E-1,-7.6353855E-2,8.901368E-2,-2.2033606E-1,-1.07610255E-1,1.6447125E-1,5.375644E-3,-3.261461E-2,6.1204075E-4,-5.600159E-2,1.9900875E-1,1.7246652E-2,1.5682785E-1,8.696653E-2,3.064314E-1,1.4441857E-1,2.1230537E-1,-3.6462005E-2,2.9233634E-1,3.6067915E-1,4.626763E-1,6.631517E-1,2.5040791E-3,-7.5312397E-3,-5.5791675E-3,-6.4967247E-3,-5.764091E-3,3.2348157E-4,-8.01301E-4,-5.033703E-3,-4.1028666E-3,-2.6349814E-3,-4.220724E-5,-2.0297486E-3,-4.78363E-4,1.9997433E-3,3.8498946E-4,-3.458968E-3,1.3580703E-3,-1.9872298E-3,-8.53535E-4,4.48184E-4,2.7933947E-3,-8.3513436E-4,4.4722078E-4,-9.645393E-4,1.7323403E-3,-1.0949874E-3,3.602146E-3,1.9669809E-4,2.6929532E-3,9.2578254E-4,4.1003013E-3,7.897554E-4,1.708161E-3,5.8205253E-3,3.1616408E-3,2.0317445E-3,2.8526757E-3,2.9970356E-3,3.7637288E-3,4.3399767E-3,-2.9220171E-3,4.213829E-3,6.7328536E-3,2.5322954E-3,5.5314344E-3,3.18743E-4,6.9716573E-3,4.1983533E-3,1.0004751E-2],"categories":[],"categories_nodes":[],"categories_segments":[],"categories_sizes":[],"default_left":[0,0,0,0,0,0,0,0,0,0,0,0,0,0,0,0,0,0,0,0,0,0,0,0,0,0,0,0,0,0,0,0,0,0,0,0,0,0,0,0,0,0,0,0,0,0,0,0,0,0,0,0,0,0,0,0,0,0,0,0,0,0,0,0,0,0,0,0,0,0,0,0,0,0,0,0,0,0,0,0,0,0,0,0,0,0,0,0,0,0,0,0,0,0,0,0,0,0,0,0,0,0,0,0,0,0,0],"id":16,"left_children":[1,3,5,7,9,11,13,15,17,19,21,23,25,27,29,-1,31,33,35,37,39,41,43,45,47,49,51,53,55,57,-1,59,-1,61,63,65,67,69,71,73,75,77,-1,79,-1,81,83,85,87,89,91,93,95,97,99,101,103,105,-1,-1,-1,-1,-1,-1,-1,-1,-1,-1,-1,-1,-1,-1,-1,-1,-1,-1,-1,